{"learner":{"attributes":{"best_iteration":"499","best_score":"0.04070992262960219","scikit_learn":"{\"_estimator_type\": \"regressor\"}"},"feature_names":[],"feature_types":[],"gradient_booster":{"model":{"cats":{"enc":[],"feature_segments":[],"sorted_idx":[]},"gbtree_model_param":{"num_parallel_tree":"1","num_trees":"500"},"iteration_indptr":[0,1,2,3,4,5,6,7,8,9,10,11,12,13,14,15,16,17,18,19,20,21,22,23,24,25,26,27,28,29,30,31,32,33,34,35,36,37,38,39,40,41,42,43,44,45,46,47,48,49,50,51,52,53,54,55,56,57,58,59,60,61,62,63,64,65,66,67,68,69,70,71,72,73,74,75,76,77,78,79,80,81,82,83,84,85,86,87,88,89,90,91,92,93,94,95,96,97,98,99,100,101,102,103,104,105,106,107,108,109,110,111,112,113,114,115,116,117,118,119,120,121,122,123,124,125,126,127,128,129,130,131,132,133,134,135,136,137,138,139,140,141,142,143,144,145,146,147,148,149,150,151,152,153,154,155,156,157,158,159,160,161,162,163,164,165,166,167,168,169,170,171,172,173,174,175,176,177,178,179,180,181,182,183,184,185,186,187,188,189,190,191,192,193,194,195,196,197,198,199,200,201,202,203,204,205,206,207,208,209,210,211,212,213,214,215,216,217,218,219,220,221,222,223,224,225,226,227,228,229,230,231,232,233,234,235,236,237,238,239,240,241,242,243,244,245,246,247,248,249,250,251,252,253,254,255,256,257,258,259,260,261,262,263,264,265,266,267,268,269,270,271,272,273,274,275,276,277,278,279,280,281,282,283,284,285,286,287,288,289,290,291,292,293,294,295,296,297,298,299,300,301,302,303,304,305,306,307,308,309,310,311,312,313,314,315,316,317,318,319,320,321,322,323,324,325,326,327,328,329,330,331,332,333,334,335,336,337,338,339,340,341,342,343,344,345,346,347,348,349,350,351,352,353,354,355,356,357,358,359,360,361,362,363,364,365,366,367,368,369,370,371,372,373,374,375,376,377,378,379,380,381,382,383,384,385,386,387,388,389,390,391,392,393,394,395,396,397,398,399,400,401,402,403,404,405,406,407,408,409,410,411,412,413,414,415,416,417,418,419,420,421,422,423,424,425,426,427,428,429,430,431,432,433,434,435,436,437,438,439,440,441,442,443,444,445,446,447,448,449,450,451,452,453,454,455,456,457,458,459,460,461,462,463,464,465,466,467,468,469,470,471,472,473,474,475,476,477,478,479,480,481,482,483,484,485,486,487,488,489,490,491,492,493,494,495,496,497,498,499,500],"tree_info":[0,0,0,0,0,0,0,0,0,0,0,0,0,0,0,0,0,0,0,0,0,0,0,0,0,0,0,0,0,0,0,0,0,0,0,0,0,0,0,0,0,0,0,0,0,0,0,0,0,0,0,0,0,0,0,0,0,0,0,0,0,0,0,0,0,0,0,0,0,0,0,0,0,0,0,0,0,0,0,0,0,0,0,0,0,0,0,0,0,0,0,0,0,0,0,0,0,0,0,0,0,0,0,0,0,0,0,0,0,0,0,0,0,0,0,0,0,0,0,0,0,0,0,0,0,0,0,0,0,0,0,0,0,0,0,0,0,0,0,0,0,0,0,0,0,0,0,0,0,0,0,0,0,0,0,0,0,0,0,0,0,0,0,0,0,0,0,0,0,0,0,0,0,0,0,0,0,0,0,0,0,0,0,0,0,0,0,0,0,0,0,0,0,0,0,0,0,0,0,0,0,0,0,0,0,0,0,0,0,0,0,0,0,0,0,0,0,0,0,0,0,0,0,0,0,0,0,0,0,0,0,0,0,0,0,0,0,0,0,0,0,0,0,0,0,0,0,0,0,0,0,0,0,0,0,0,0,0,0,0,0,0,0,0,0,0,0,0,0,0,0,0,0,0,0,0,0,0,0,0,0,0,0,0,0,0,0,0,0,0,0,0,0,0,0,0,0,0,0,0,0,0,0,0,0,0,0,0,0,0,0,0,0,0,0,0,0,0,0,0,0,0,0,0,0,0,0,0,0,0,0,0,0,0,0,0,0,0,0,0,0,0,0,0,0,0,0,0,0,0,0,0,0,0,0,0,0,0,0,0,0,0,0,0,0,0,0,0,0,0,0,0,0,0,0,0,0,0,0,0,0,0,0,0,0,0,0,0,0,0,0,0,0,0,0,0,0,0,0,0,0,0,0,0,0,0,0,0,0,0,0,0,0,0,0,0,0,0,0,0,0,0,0,0,0,0,0,0,0,0,0,0,0,0,0,0,0,0,0,0,0,0,0,0,0,0,0,0,0,0,0,0,0,0,0,0,0,0,0,0,0,0,0,0,0,0,0,0,0,0,0,0,0,0,0,0,0,0,0,0,0,0,0,0,0,0,0,0,0,0,0,0,0,0,0,0,0,0,0,0],"trees":[{"base_weights":[4.3185786E-3,-9.622964E-1,7.594572E-1,-1.5478679E0,-5.7782173E-1,3.4478977E-1,1.1420543E0,-2.001329E0,-1.3416055E0,-8.112547E-1,-3.457534E-1,1.12286314E-1,5.440753E-1,9.767465E-1,1.4259046E0,-2.3472393E0,-1.8560772E0,-1.4923435E0,-1.1963966E0,-9.382194E-1,-7.043625E-1,-4.6763334E-1,-2.2148019E-1,8.24473E-3,2.3091832E-1,4.347461E-1,6.4035374E-1,8.6417496E-1,1.0787084E0,1.3181584E0,1.6340185E0,-1.3153517E-1,-1.11837886E-1,-9.782127E-2,-8.773529E-2,-1.5778435E0,-1.413798E0,-1.2674146E0,-1.1269513E0,-8.4013957E-1,-9.7395647E-1,-6.037984E-1,-7.41208E-1,-3.7139964E-1,-5.0347275E-1,-1.2334512E-1,-2.7224126E-1,9.4605826E-2,-4.434982E-2,3.055239E-1,1.8168513E-1,5.086911E-1,3.9563054E-1,7.119375E-1,6.001363E-1,8.1243473E-1,9.2310476E-1,1.0197263E0,1.1375011E0,1.2622627E0,1.39771E0,7.7754475E-2,8.868216E-2,-7.395292E-2,-8.0524296E-2,-6.5290876E-2,-7.2468914E-2,-5.8029022E-2,-6.521692E-2,-5.1290102E-2,-5.817452E-2,-4.4053372E-2,-3.7706517E-2,-5.1227774E-2,-4.554687E-2,-3.302036E-2,-2.737316E-2,-3.963627E-2,-3.3909302E-2,-2.200823E-2,-1.5867123E-2,-2.805909E-2,-2.2458086E-2,-8.1091365E-3,-2.5894877E-3,-1.6743181E-2,-1.067521E-2,1.5214578E-3,7.115009E-3,-5.196349E-3,8.605445E-4,1.1951694E-2,1.7676366E-2,6.5805777E-3,1.219143E-2,2.3153348E-2,2.8043782E-2,1.7136235E-2,2.2520922E-2,3.3232532E-2,3.8263105E-2,2.6499523E-2,3.1939387E-2,4.403201E-2,3.844462E-2,4.9333204E-2,4.416778E-2,5.377273E-2,4.9149107E-2,5.9925914E-2,5.5259503E-2,6.590139E-2,6.0810417E-2,7.288047E-2,6.702977E-2],"categories":[],"categories_nodes":[],"categories_segments":[],"categories_sizes":[],"default_left":[0,0,0,0,0,0,0,0,0,0,0,0,0,0,0,0,0,0,0,0,0,0,0,0,0,0,0,0,0,0,0,0,0,0,0,0,0,0,0,0,0,0,0,0,0,0,0,0,0,0,0,0,0,0,0,0,0,0,0,0,0,0,0,0,0,0,0,0,0,0,0,0,0,0,0,0,0,0,0,0,0,0,0,0,0,0,0,0,0,0,0,0,0,0,0,0,0,0,0,0,0,0,0,0,0,0,0,0,0,0,0,0,0,0,0],"id":0,"left_children":[1,3,5,7,9,11,13,15,17,19,21,23,25,27,29,31,33,35,37,39,41,43,45,47,49,51,53,55,57,59,61,-1,-1,-1,-1,63,65,67,69,71,73,75,77,79,81,83,85,87,89,91,93,95,97,99,101,103,105,107,109,111,113,-1,-1,-1,-1,-1,-1,-1,-1,-1,-1,-1,-1,-1,-1,-1,-1,-1,-1,-1,-1,-1,-1,-1,-1,-1,-1,-1,-1,-1,-1,-1,-1,-1,-1,-1,-1,-1,-1,-1,-1,-1,-1,-1,-1,-1,-1,-1,-1,-1,-1,-1,-1,-1,-1],"loss_changes":[2.0229232E4,2.7356514E3,2.4680508E3,4.4785938E2,3.9729053E2,3.4596545E2,3.7830566E2,7.121045E1,7.075293E1,4.8983887E1,5.5665497E1,4.255559E1,4.2046875E1,5.7800293E1,6.4578125E1,7.926758E0,7.390625E0,8.661865E0,6.9213867E0,5.031616E0,6.9261475E0,6.221161E0,9.0575485E0,8.352617E0,5.861809E0,5.2538147E0,5.722107E0,6.680542E0,8.137207E0,6.977783E0,8.383301E0,0E0,0E0,0E0,0E0,9.460449E-2,1.3920898E0,1.7563477E0,2.003418E0,9.301758E-1,2.9473877E0,1.3573761E0,4.1765747E0,1.7486801E0,3.9822998E0,1.7257214E0,4.349762E0,2.1260328E0,4.1938696E0,1.9550209E0,2.995636E0,1.2854767E0,3.4340973E0,1.4153137E0,3.3866882E0,3.201477E0,1.9882812E0,1.703125E0,1.3054199E0,1.388916E0,7.8967285E-1,0E0,0E0,0E0,0E0,0E0,0E0,0E0,0E0,0E0,0E0,0E0,0E0,0E0,0E0,0E0,0E0,0E0,0E0,0E0,0E0,0E0,0E0,0E0,0E0,0E0,0E0,0E0,0E0,0E0,0E0,0E0,0E0,0E0,0E0,0E0,0E0,0E0,0E0,0E0,0E0,0E0,0E0,0E0,0E0,0E0,0E0,0E0,0E0,0E0,0E0,0E0,0E0,0E0,0E0],"parents":[2147483647,0,0,1,1,2,2,3,3,4,4,5,5,6,6,7,7,8,8,9,9,10,10,11,11,12,12,13,13,14,14,15,15,16,16,17,17,18,18,19,19,20,20,21,21,22,22,23,23,24,24,25,25,26,26,27,27,28,28,29,29,30,30,35,35,36,36,37,37,38,38,39,39,40,40,41,41,42,42,43,43,44,44,45,45,46,46,47,47,48,48,49,49,50,50,51,51,52,52,53,53,54,54,55,55,56,56,57,57,58,58,59,59,60,60],"right_children":[2,4,6,8,10,12,14,16,18,20,22,24,26,28,30,32,34,36,38,40,42,44,46,48,50,52,54,56,58,60,62,-1,-1,-1,-1,64,66,68,70,72,74,76,78,80,82,84,86,88,90,92,94,96,98,100,102,104,106,108,110,112,114,-1,-1,-1,-1,-1,-1,-1,-1,-1,-1,-1,-1,-1,-1,-1,-1,-1,-1,-1,-1,-1,-1,-1,-1,-1,-1,-1,-1,-1,-1,-1,-1,-1,-1,-1,-1,-1,-1,-1,-1,-1,-1,-1,-1,-1,-1,-1,-1,-1,-1,-1,-1,-1,-1],"split_conditions":[-1.0240593E-1,-1.0557722E0,7.57493E-1,-1.6726562E0,-5.7908905E-1,3.3689028E-1,1.206136E0,-2.0932589E0,-1.336174E0,-8.221039E-1,-3.4542084E-1,1.3126226E-1,5.4251826E-1,9.724677E-1,1.4865378E0,-2.4577813E0,-1.8502439E0,-1.4950683E0,-1.195973E0,-7.0711607E-1,-7.0711607E-1,-7.0711607E-1,-3.660555E-1,-3.660555E-1,-3.660555E-1,-3.660555E-1,-3.660555E-1,8.790005E-1,1.0846285E0,1.3463368E0,1.6921657E0,-1.3153517E-1,-1.11837886E-1,-9.782127E-2,-8.773529E-2,-7.0711607E-1,-7.0711607E-1,-7.0711607E-1,-7.0711607E-1,-9.062245E-1,-9.2491794E-1,-7.005965E-1,-6.912498E-1,-4.8562175E-1,-4.669283E-1,-1.7717974E-1,-2.2391339E-1,4.0807758E-4,1.9101532E-2,2.1538281E-1,2.527697E-1,4.49051E-1,4.49051E-1,6.54679E-1,6.172921E-1,-3.660555E-1,-3.660555E-1,-3.660555E-1,-7.0711607E-1,-3.660555E-1,-3.660555E-1,7.7754475E-2,8.868216E-2,-7.395292E-2,-8.0524296E-2,-6.5290876E-2,-7.2468914E-2,-5.8029022E-2,-6.521692E-2,-5.1290102E-2,-5.817452E-2,-4.4053372E-2,-3.7706517E-2,-5.1227774E-2,-4.554687E-2,-3.302036E-2,-2.737316E-2,-3.963627E-2,-3.3909302E-2,-2.200823E-2,-1.5867123E-2,-2.805909E-2,-2.2458086E-2,-8.1091365E-3,-2.5894877E-3,-1.6743181E-2,-1.067521E-2,1.5214578E-3,7.115009E-3,-5.196349E-3,8.605445E-4,1.1951694E-2,1.7676366E-2,6.5805777E-3,1.219143E-2,2.3153348E-2,2.8043782E-2,1.7136235E-2,2.2520922E-2,3.3232532E-2,3.8263105E-2,2.6499523E-2,3.1939387E-2,4.403201E-2,3.844462E-2,4.9333204E-2,4.416778E-2,5.377273E-2,4.9149107E-2,5.9925914E-2,5.5259503E-2,6.590139E-2,6.0810417E-2,7.288047E-2,6.702977E-2],"split_indices":[4,4,4,4,4,4,4,4,4,4,4,4,4,4,4,4,4,4,4,1,1,1,1,1,1,1,1,4,4,4,4,0,0,0,0,1,1,1,1,4,4,4,4,4,4,4,4,4,4,4,4,4,4,4,4,1,1,1,1,1,1,0,0,0,0,0,0,0,0,0,0,0,0,0,0,0,0,0,0,0,0,0,0,0,0,0,0,0,0,0,0,0,0,0,0,0,0,0,0,0,0,0,0,0,0,0,0,0,0,0,0,0,0,0,0],"split_type":[0,0,0,0,0,0,0,0,0,0,0,0,0,0,0,0,0,0,0,0,0,0,0,0,0,0,0,0,0,0,0,0,0,0,0,0,0,0,0,0,0,0,0,0,0,0,0,0,0,0,0,0,0,0,0,0,0,0,0,0,0,0,0,0,0,0,0,0,0,0,0,0,0,0,0,0,0,0,0,0,0,0,0,0,0,0,0,0,0,0,0,0,0,0,0,0,0,0,0,0,0,0,0,0,0,0,0,0,0,0,0,0,0,0,0],"sum_hessian":[2.7712E4,1.2154E4,1.5558E4,4.816E3,7.338E3,7.467E3,8.091E3,1.503E3,3.313E3,3.657E3,3.681E3,3.447E3,4.02E3,5.116E3,2.975E3,4.4E2,1.063E3,1.621E3,1.692E3,1.668E3,1.989E3,1.857E3,1.824E3,1.837E3,1.61E3,1.885E3,2.135E3,2.436E3,2.68E3,1.965E3,1.01E3,1.17E2,3.23E2,5.25E2,5.38E2,7.67E2,8.54E2,8.28E2,8.64E2,4.52E2,1.216E3,5.38E2,1.451E3,5.07E2,1.35E3,6.23E2,1.201E3,6.95E2,1.142E3,6.38E2,9.72E2,6.48E2,1.237E3,7.62E2,1.373E3,1.305E3,1.131E3,1.347E3,1.333E3,1.164E3,8.01E2,6.53E2,3.57E2,2.02E2,5.65E2,2.21E2,6.33E2,2.21E2,6.07E2,2.37E2,6.27E2,3E2,1.52E2,6.66E2,5.5E2,2.63E2,2.75E2,7.92E2,6.59E2,2.2E2,2.87E2,6.5E2,7E2,4.03E2,2.2E2,5.79E2,6.22E2,2.97E2,3.98E2,5.8E2,5.62E2,2.7E2,3.68E2,5.4E2,4.32E2,3.51E2,2.97E2,6.33E2,6.04E2,4.11E2,3.51E2,4.93E2,8.8E2,5.01E2,8.04E2,4.26E2,7.05E2,5.24E2,8.23E2,4.49E2,8.84E2,5.14E2,6.5E2,3.79E2,4.22E2],"tree_param":{"num_deleted":"0","num_feature":"16","num_nodes":"115","size_leaf_vector":"1"}},{"base_weights":[-1.4113319E-3,-9.200796E-1,7.113214E-1,-1.4629407E0,-5.560372E-1,3.0292955E-1,1.0679036E0,-1.8971124E0,-1.2686586E0,-7.6343226E-1,-3.235955E-1,7.951654E-2,4.8637405E-1,9.009683E-1,1.33607E0,-2.226366E0,-1.7643869E0,-1.4058442E0,-1.1256711E0,-8.8233817E-1,-6.528206E-1,-4.3630102E-1,-2.1663547E-1,-1.7639646E-2,1.7924656E-1,3.839084E-1,5.8123845E-1,7.899579E-1,9.9856234E-1,1.2347566E0,1.5541344E0,-1.252388E-1,-1.0660755E-1,-9.299813E-2,-8.338412E-2,-1.4891962E0,-1.327342E0,-1.1932467E0,-1.0716645E0,-9.444707E-1,-8.2709664E-1,-5.720469E-1,-6.95841E-1,-3.6021507E-1,-4.7909606E-1,-1.2166324E-1,-2.627812E-1,6.2834956E-2,-6.395462E-2,2.4978364E-1,1.322069E-1,3.3491054E-1,4.392427E-1,6.527628E-1,5.410159E-1,7.351629E-1,8.388426E-1,9.421285E-1,1.0534195E0,1.1789093E0,1.3136657E0,1.4767555E0,8.461155E-2,-6.96447E-2,-7.607965E-2,-6.1573047E-2,-6.793025E-2,-5.4758698E-2,-6.1554052E-2,-4.874439E-2,-5.528303E-2,-4.2586025E-2,-4.8953813E-2,-3.6520872E-2,-4.2999864E-2,-3.14218E-2,-2.6220093E-2,-3.7299655E-2,-3.1571027E-2,-2.0548353E-2,-1.5239266E-2,-2.6539702E-2,-2.1584468E-2,-8.544398E-3,-4.028483E-3,-1.5912568E-2,-1.0371407E-2,8.619893E-4,5.950859E-3,-5.7236766E-3,-8.8410144E-4,9.275897E-3,1.48146525E-2,3.9407164E-3,8.935545E-3,2.0399695E-2,1.4677872E-2,2.5484009E-2,2.0150175E-2,2.9857168E-2,3.4691084E-2,2.4445226E-2,2.9198138E-2,3.994188E-2,3.4694824E-2,4.4770073E-2,4.011162E-2,4.975375E-2,4.5385364E-2,5.555513E-2,5.11719E-2,6.1553266E-2,5.6920897E-2,6.843961E-2,6.329394E-2,7.6587215E-2,7.070414E-2],"categories":[],"categories_nodes":[],"categories_segments":[],"categories_sizes":[],"default_left":[0,0,0,0,0,0,0,0,0,0,0,0,0,0,0,0,0,0,0,0,0,0,0,0,0,0,0,0,0,0,0,0,0,0,0,0,0,0,0,0,0,0,0,0,0,0,0,0,0,0,0,0,0,0,0,0,0,0,0,0,0,0,0,0,0,0,0,0,0,0,0,0,0,0,0,0,0,0,0,0,0,0,0,0,0,0,0,0,0,0,0,0,0,0,0,0,0,0,0,0,0,0,0,0,0,0,0,0,0,0,0,0,0,0,0,0,0],"id":1,"left_children":[1,3,5,7,9,11,13,15,17,19,21,23,25,27,29,31,33,35,37,39,41,43,45,47,49,51,53,55,57,59,61,-1,-1,-1,-1,63,65,67,69,71,73,75,77,79,81,83,85,87,89,91,93,95,97,99,101,103,105,107,109,111,113,115,-1,-1,-1,-1,-1,-1,-1,-1,-1,-1,-1,-1,-1,-1,-1,-1,-1,-1,-1,-1,-1,-1,-1,-1,-1,-1,-1,-1,-1,-1,-1,-1,-1,-1,-1,-1,-1,-1,-1,-1,-1,-1,-1,-1,-1,-1,-1,-1,-1,-1,-1,-1,-1,-1,-1],"loss_changes":[1.826336E4,2.4074385E3,2.2870132E3,4.1015723E2,3.514734E2,3.000863E2,3.741631E2,6.205957E1,6.47583E1,5.012622E1,4.1398743E1,3.2007217E1,3.8862366E1,5.5233887E1,6.9109375E1,5.9384766E0,6.8896484E0,9.2907715E0,4.783203E0,5.5859375E0,6.555237E0,5.281372E0,7.7163925E0,6.2433167E0,5.3753815E0,5.101898E0,5.6480103E0,5.8762207E0,7.5148926E0,8.146484E0,8.35791E0,0E0,0E0,0E0,0E0,4.6081543E-1,1.0126953E0,1.3566895E0,1.9915771E0,1.9456177E0,2.520752E0,1.5538025E0,3.7321777E0,1.5823364E0,2.390808E0,1.1594667E0,3.5847473E0,1.5656707E0,2.4828882E0,1.8908501E0,2.4192219E0,2.9961395E0,2.107254E0,1.2893066E0,2.7156982E0,2.4700928E0,1.9196777E0,1.5826416E0,1.2580566E0,1.3395996E0,6.459961E-1,1.0510254E-1,0E0,0E0,0E0,0E0,0E0,0E0,0E0,0E0,0E0,0E0,0E0,0E0,0E0,0E0,0E0,0E0,0E0,0E0,0E0,0E0,0E0,0E0,0E0,0E0,0E0,0E0,0E0,0E0,0E0,0E0,0E0,0E0,0E0,0E0,0E0,0E0,0E0,0E0,0E0,0E0,0E0,0E0,0E0,0E0,0E0,0E0,0E0,0E0,0E0,0E0,0E0,0E0,0E0,0E0,0E0],"parents":[2147483647,0,0,1,1,2,2,3,3,4,4,5,5,6,6,7,7,8,8,9,9,10,10,11,11,12,12,13,13,14,14,15,15,16,16,17,17,18,18,19,19,20,20,21,21,22,22,23,23,24,24,25,25,26,26,27,27,28,28,29,29,30,30,35,35,36,36,37,37,38,38,39,39,40,40,41,41,42,42,43,43,44,44,45,45,46,46,47,47,48,48,49,49,50,50,51,51,52,52,53,53,54,54,55,55,56,56,57,57,58,58,59,59,60,60,61,61],"right_children":[2,4,6,8,10,12,14,16,18,20,22,24,26,28,30,32,34,36,38,40,42,44,46,48,50,52,54,56,58,60,62,-1,-1,-1,-1,64,66,68,70,72,74,76,78,80,82,84,86,88,90,92,94,96,98,100,102,104,106,108,110,112,114,116,-1,-1,-1,-1,-1,-1,-1,-1,-1,-1,-1,-1,-1,-1,-1,-1,-1,-1,-1,-1,-1,-1,-1,-1,-1,-1,-1,-1,-1,-1,-1,-1,-1,-1,-1,-1,-1,-1,-1,-1,-1,-1,-1,-1,-1,-1,-1,-1,-1,-1,-1,-1,-1,-1,-1],"split_conditions":[-1.1175265E-1,-1.0557722E0,7.201061E-1,-1.6726562E0,-5.603956E-1,2.9950336E-1,1.1780957E0,-2.0932589E0,-1.3174806E0,-8.034105E-1,-3.4542084E-1,9.3875356E-2,5.144781E-1,9.4442755E-1,1.4865378E0,-2.4577813E0,-1.8502439E0,-1.4763749E0,-1.195973E0,-9.3426466E-1,-3.660555E-1,-3.660555E-1,-3.660555E-1,-3.660555E-1,-3.660555E-1,4.2101082E-1,-3.660555E-1,8.322668E-1,1.0565883E0,1.3276434E0,1.6921657E0,-1.252388E-1,-1.0660755E-1,-9.299813E-2,-8.338412E-2,-7.0711607E-1,-7.0711607E-1,-7.0711607E-1,-7.0711607E-1,-7.0711607E-1,-7.0711607E-1,-6.912498E-1,-6.725563E-1,-4.5758158E-1,-4.5758158E-1,-2.3326011E-1,-2.2391339E-1,4.0807758E-4,-1.8285377E-2,1.6864917E-1,1.8734263E-1,-3.660555E-1,-3.660555E-1,6.079454E-1,6.079454E-1,-3.660555E-1,-3.660555E-1,-3.660555E-1,-7.0711607E-1,-3.660555E-1,-3.660555E-1,-3.660555E-1,8.461155E-2,-6.96447E-2,-7.607965E-2,-6.1573047E-2,-6.793025E-2,-5.4758698E-2,-6.1554052E-2,-4.874439E-2,-5.528303E-2,-4.2586025E-2,-4.8953813E-2,-3.6520872E-2,-4.2999864E-2,-3.14218E-2,-2.6220093E-2,-3.7299655E-2,-3.1571027E-2,-2.0548353E-2,-1.5239266E-2,-2.6539702E-2,-2.1584468E-2,-8.544398E-3,-4.028483E-3,-1.5912568E-2,-1.0371407E-2,8.619893E-4,5.950859E-3,-5.7236766E-3,-8.8410144E-4,9.275897E-3,1.48146525E-2,3.9407164E-3,8.935545E-3,2.0399695E-2,1.4677872E-2,2.5484009E-2,2.0150175E-2,2.9857168E-2,3.4691084E-2,2.4445226E-2,2.9198138E-2,3.994188E-2,3.4694824E-2,4.4770073E-2,4.011162E-2,4.975375E-2,4.5385364E-2,5.555513E-2,5.11719E-2,6.1553266E-2,5.6920897E-2,6.843961E-2,6.329394E-2,7.6587215E-2,7.070414E-2],"split_indices":[4,4,4,4,4,4,4,4,4,4,4,4,4,4,4,4,4,4,4,4,1,1,1,1,1,4,1,4,4,4,4,0,0,0,0,1,1,1,1,1,1,4,4,4,4,4,4,4,4,4,4,1,1,4,4,1,1,1,1,1,1,1,0,0,0,0,0,0,0,0,0,0,0,0,0,0,0,0,0,0,0,0,0,0,0,0,0,0,0,0,0,0,0,0,0,0,0,0,0,0,0,0,0,0,0,0,0,0,0,0,0,0,0,0,0,0,0],"split_type":[0,0,0,0,0,0,0,0,0,0,0,0,0,0,0,0,0,0,0,0,0,0,0,0,0,0,0,0,0,0,0,0,0,0,0,0,0,0,0,0,0,0,0,0,0,0,0,0,0,0,0,0,0,0,0,0,0,0,0,0,0,0,0,0,0,0,0,0,0,0,0,0,0,0,0,0,0,0,0,0,0,0,0,0,0,0,0,0,0,0,0,0,0,0,0,0,0,0,0,0,0,0,0,0,0,0,0,0,0,0,0,0,0,0,0,0,0],"sum_hessian":[2.7891E4,1.2185E4,1.5706E4,4.89E3,7.295E3,7.322E3,8.384E3,1.509E3,3.381E3,3.854E3,3.441E3,3.302E3,4.02E3,5.17E3,3.214E3,4.29E2,1.08E3,1.721E3,1.66E3,1.854E3,2E3,1.674E3,1.767E3,1.673E3,1.629E3,1.935E3,2.085E3,2.423E3,2.747E3,2.199E3,1.015E3,1.02E2,3.27E2,5.34E2,5.46E2,8.26E2,8.95E2,7.28E2,9.32E2,8.65E2,9.89E2,7E2,1.3E3,6.06E2,1.068E3,5.79E2,1.188E3,6.11E2,1.062E3,6.5E2,9.79E2,1.03E3,9.05E2,7.45E2,1.34E3,1.15E3,1.273E3,1.363E3,1.384E3,1.297E3,9.02E2,6.58E2,3.57E2,2.19E2,6.07E2,2.3E2,6.65E2,2.11E2,5.17E2,2.5E2,6.82E2,2.42E2,6.23E2,2.57E2,7.32E2,3.15E2,3.85E2,7.25E2,5.75E2,3.13E2,2.93E2,5.06E2,5.62E2,2.62E2,3.17E2,5.91E2,5.97E2,3.38E2,2.73E2,5.07E2,5.55E2,2.75E2,3.75E2,4.57E2,5.22E2,3.69E2,6.61E2,3.03E2,6.02E2,3.23E2,4.22E2,6.11E2,7.29E2,4.45E2,7.05E2,4.91E2,7.82E2,5.26E2,8.37E2,4.61E2,9.23E2,5.54E2,7.43E2,4.06E2,4.96E2,3.38E2,3.2E2],"tree_param":{"num_deleted":"0","num_feature":"16","num_nodes":"117","size_leaf_vector":"1"}},{"base_weights":[5.796435E-3,-8.7233096E-1,6.772987E-1,-1.3764083E0,-5.13717E-1,3.0506945E-1,1.0302434E0,-1.7626468E0,-1.175667E0,-7.1286196E-1,-3.0681264E-1,8.581268E-2,4.8452133E-1,8.892579E-1,1.300985E0,-2.0611277E0,-1.6272044E0,-1.298328E0,-1.0400774E0,-8.1903553E-1,-6.107618E-1,-4.1523904E-1,-2.0401654E-1,-1.6815571E-2,1.7784901E-1,3.8535005E-1,5.800917E-1,7.926064E-1,9.936627E-1,1.2152663E0,1.5108584E0,-1.13145165E-1,-9.62927E-2,-8.6340554E-2,-7.720103E-2,-6.8411246E-2,-6.10747E-2,-1.1004825E0,-9.8937523E-1,-8.701647E-1,-7.654227E-1,-6.59338E-1,-5.609287E-1,-4.67779E-1,-3.727737E-1,-1.01510614E-1,-2.3038836E-1,7.303831E-2,-4.1384466E-2,1.2870009E-1,2.3592976E-1,3.2589749E-1,4.2922786E-1,5.408562E-1,6.328466E-1,7.372279E-1,8.496874E-1,9.507878E-1,1.0501549E0,1.1563267E0,6.427842E-2,7.267692E-2,8.2742356E-2,-4.9491808E-2,-5.605783E-2,-4.513601E-2,-5.042694E-2,-3.7120126E-2,-4.4341948E-2,-3.255808E-2,-3.9273858E-2,-2.7450139E-2,-3.394437E-2,-2.264939E-2,-2.9080478E-2,-1.7369347E-2,-2.4688423E-2,-1.309495E-2,-1.972493E-2,-8.19893E-3,-1.9243973E-3,-1.4058167E-2,-8.516976E-3,7.6700526E-4,6.206986E-3,-4.2051426E-3,7.9410983E-4,1.1424881E-2,5.1619876E-3,1.6436828E-2,1.0418472E-2,2.1750132E-2,1.5256569E-2,2.6558787E-2,2.0579062E-2,3.044813E-2,2.5637666E-2,3.5351735E-2,3.0593073E-2,4.0320717E-2,3.560791E-2,4.5605388E-2,4.131911E-2,5.0715506E-2,4.6478868E-2,5.5335093E-2,5.138686E-2,6.0631838E-2,5.6414187E-2],"categories":[],"categories_nodes":[],"categories_segments":[],"categories_sizes":[],"default_left":[0,0,0,0,0,0,0,0,0,0,0,0,0,0,0,0,0,0,0,0,0,0,0,0,0,0,0,0,0,0,0,0,0,0,0,0,0,0,0,0,0,0,0,0,0,0,0,0,0,0,0,0,0,0,0,0,0,0,0,0,0,0,0,0,0,0,0,0,0,0,0,0,0,0,0,0,0,0,0,0,0,0,0,0,0,0,0,0,0,0,0,0,0,0,0,0,0,0,0,0,0,0,0,0,0,0,0,0,0],"id":2,"left_children":[1,3,5,7,9,11,13,15,17,19,21,23,25,27,29,31,33,35,37,39,41,43,45,47,49,51,53,55,57,59,61,-1,-1,-1,-1,-1,-1,63,65,67,69,71,73,75,77,79,81,83,85,87,89,91,93,95,97,99,101,103,105,107,-1,-1,-1,-1,-1,-1,-1,-1,-1,-1,-1,-1,-1,-1,-1,-1,-1,-1,-1,-1,-1,-1,-1,-1,-1,-1,-1,-1,-1,-1,-1,-1,-1,-1,-1,-1,-1,-1,-1,-1,-1,-1,-1,-1,-1,-1,-1,-1,-1],"loss_changes":[1.6389137E4,2.1764756E3,2.0688633E3,3.8606348E2,2.8981604E2,3.016245E2,3.0741504E2,6.577637E1,5.3484375E1,3.837317E1,3.8412903E1,3.2608955E1,3.9734985E1,5.288623E1,4.7924316E1,1.0108154E1,7.1188965E0,7.6035156E0,3.7227783E0,4.1447754E0,4.0648804E0,3.5739136E0,4.7749176E0,3.608051E0,5.16502E0,5.2652283E0,4.097534E0,8.120117E0,5.1853027E0,6.6723633E0,4.180786E0,0E0,0E0,0E0,0E0,0E0,0E0,5.097046E-1,5.24292E-1,1.2398071E0,1.470581E0,1.6160278E0,1.7701721E0,2.1657715E0,2.1464386E0,1.4306567E0,4.2542114E0,1.0330051E0,3.139989E0,2.4867992E0,2.0621338E0,1.8701324E0,1.9204407E0,2.055359E0,9.8257446E-1,1.8748169E0,1.2188721E0,1.0268555E0,2.4682617E-1,3.388672E-1,0E0,0E0,0E0,0E0,0E0,0E0,0E0,0E0,0E0,0E0,0E0,0E0,0E0,0E0,0E0,0E0,0E0,0E0,0E0,0E0,0E0,0E0,0E0,0E0,0E0,0E0,0E0,0E0,0E0,0E0,0E0,0E0,0E0,0E0,0E0,0E0,0E0,0E0,0E0,0E0,0E0,0E0,0E0,0E0,0E0,0E0,0E0,0E0,0E0],"parents":[2147483647,0,0,1,1,2,2,3,3,4,4,5,5,6,6,7,7,8,8,9,9,10,10,11,11,12,12,13,13,14,14,15,15,16,16,17,17,18,18,19,19,20,20,21,21,22,22,23,23,24,24,25,25,26,26,27,27,28,28,29,29,30,30,37,37,38,38,39,39,40,40,41,41,42,42,43,43,44,44,45,45,46,46,47,47,48,48,49,49,50,50,51,51,52,52,53,53,54,54,55,55,56,56,57,57,58,58,59,59],"right_children":[2,4,6,8,10,12,14,16,18,20,22,24,26,28,30,32,34,36,38,40,42,44,46,48,50,52,54,56,58,60,62,-1,-1,-1,-1,-1,-1,64,66,68,70,72,74,76,78,80,82,84,86,88,90,92,94,96,98,100,102,104,106,108,-1,-1,-1,-1,-1,-1,-1,-1,-1,-1,-1,-1,-1,-1,-1,-1,-1,-1,-1,-1,-1,-1,-1,-1,-1,-1,-1,-1,-1,-1,-1,-1,-1,-1,-1,-1,-1,-1,-1,-1,-1,-1,-1,-1,-1,-1,-1,-1,-1],"split_conditions":[-1.1175265E-1,-1.0277319E0,7.57493E-1,-1.6165758E0,-5.603956E-1,3.181968E-1,1.2248294E0,-2.0371785E0,-1.2800936E0,-7.84717E-1,-3.4542084E-1,9.3875356E-2,5.4251826E-1,1.000508E0,1.5332714E0,-2.298887E0,-1.812857E0,-1.4296412E0,-1.1585861E0,-9.062245E-1,-6.725563E-1,-4.669283E-1,-3.4557366E-1,-1.4925468E-1,2.1538281E-1,4.2101082E-1,6.640257E-1,8.883472E-1,1.1220154E0,1.3650303E0,1.7575928E0,-1.13145165E-1,-9.62927E-2,-8.6340554E-2,-7.720103E-2,-6.8411246E-2,-6.10747E-2,-1.336517E0,-1.1962892E0,-1.0746248E0,-9.250616E-1,-8.0354154E-1,-6.913692E-1,-5.885445E-1,-4.8571983E-1,-2.5195357E-1,-2.0521992E-1,-3.6978833E-2,9.754805E-3,7.514202E-2,1.9666208E-1,2.8079137E-1,2.994744E-1,5.518845E-1,6.5469927E-1,7.5755197E-1,8.790828E-1,9.6321946E-1,1.0754018E0,1.1969326E0,6.427842E-2,7.267692E-2,8.2742356E-2,-4.9491808E-2,-5.605783E-2,-4.513601E-2,-5.042694E-2,-3.7120126E-2,-4.4341948E-2,-3.255808E-2,-3.9273858E-2,-2.7450139E-2,-3.394437E-2,-2.264939E-2,-2.9080478E-2,-1.7369347E-2,-2.4688423E-2,-1.309495E-2,-1.972493E-2,-8.19893E-3,-1.9243973E-3,-1.4058167E-2,-8.516976E-3,7.6700526E-4,6.206986E-3,-4.2051426E-3,7.9410983E-4,1.1424881E-2,5.1619876E-3,1.6436828E-2,1.0418472E-2,2.1750132E-2,1.5256569E-2,2.6558787E-2,2.0579062E-2,3.044813E-2,2.5637666E-2,3.5351735E-2,3.0593073E-2,4.0320717E-2,3.560791E-2,4.5605388E-2,4.131911E-2,5.0715506E-2,4.6478868E-2,5.5335093E-2,5.138686E-2,6.0631838E-2,5.6414187E-2],"split_indices":[4,4,4,4,4,4,4,4,4,4,4,4,4,4,4,4,4,4,4,4,4,4,6,6,4,4,4,4,4,4,4,0,0,0,0,0,0,6,6,5,5,5,5,5,5,4,4,4,4,5,5,5,6,6,5,6,6,6,6,6,0,0,0,0,0,0,0,0,0,0,0,0,0,0,0,0,0,0,0,0,0,0,0,0,0,0,0,0,0,0,0,0,0,0,0,0,0,0,0,0,0,0,0,0,0,0,0,0,0],"split_type":[0,0,0,0,0,0,0,0,0,0,0,0,0,0,0,0,0,0,0,0,0,0,0,0,0,0,0,0,0,0,0,0,0,0,0,0,0,0,0,0,0,0,0,0,0,0,0,0,0,0,0,0,0,0,0,0,0,0,0,0,0,0,0,0,0,0,0,0,0,0,0,0,0,0,0,0,0,0,0,0,0,0,0,0,0,0,0,0,0,0,0,0,0,0,0,0,0,0,0,0,0,0,0,0,0,0,0,0,0],"sum_hessian":[2.7792E4,1.2043E4,1.5749E4,5.005E3,7.038E3,7.666E3,8.083E3,1.709E3,3.296E3,3.585E3,3.453E3,3.451E3,4.215E3,5.318E3,2.765E3,5.29E2,1.18E3,1.726E3,1.57E3,1.754E3,1.831E3,1.679E3,1.774E3,1.632E3,1.819E3,2.071E3,2.144E3,2.766E3,2.552E3,1.968E3,7.97E2,2.06E2,3.23E2,5.28E2,6.52E2,8.95E2,8.31E2,7.07E2,8.63E2,8.9E2,8.64E2,9.21E2,9.1E2,7.46E2,9.33E2,3.64E2,1.41E3,3.5E2,1.282E3,9.87E2,8.32E2,8.83E2,1.188E3,1.236E3,9.08E2,1.411E3,1.355E3,1.461E3,1.091E3,1.08E3,8.88E2,5.78E2,2.19E2,1.19E2,5.88E2,1.65E2,6.98E2,1.08E2,7.82E2,1.34E2,7.3E2,1.43E2,7.78E2,1.5E2,7.6E2,1.35E2,6.11E2,1.55E2,7.78E2,1.82E2,1.82E2,7.62E2,6.48E2,1.65E2,1.85E2,7.34E2,5.48E2,1.99E2,7.88E2,1.88E2,6.44E2,1.38E2,7.45E2,1.71E2,1.017E3,3.55E2,8.81E2,1.93E2,7.15E2,3.67E2,1.044E3,3.58E2,9.97E2,3.54E2,1.107E3,2.96E2,7.95E2,3.45E2,7.35E2],"tree_param":{"num_deleted":"0","num_feature":"16","num_nodes":"109","size_leaf_vector":"1"}},{"base_weights":[-1.2438915E-4,-8.0758375E-1,6.628808E-1,-1.3127723E0,-4.72721E-1,3.0939245E-1,9.807172E-1,-1.6948158E0,-1.1303557E0,-6.6416866E-1,-2.5539568E-1,1.11923516E-1,4.6665117E-1,8.539826E-1,1.2539657E0,-2.0034904E0,-1.579098E0,-1.2589194E0,-1.0070869E0,-7.627422E-1,-5.473887E-1,-3.5119662E-1,-1.4755233E-1,2.7711978E-2,2.0104854E-1,3.8297144E-1,5.5839807E-1,7.5464696E-1,9.511788E-1,1.16816E0,1.4370093E0,-1.1273389E-1,-9.613847E-2,-8.39581E-2,-7.465589E-2,-6.708821E-2,-6.0183663E-2,-1.067653E0,-9.516591E-1,-8.2516426E-1,-7.0025027E-1,-5.94081E-1,-5.0106287E-1,-3.9822146E-1,-2.895327E-1,-3.8184464E-2,-1.7145352E-1,1.14437856E-1,2.3703118E-4,1.5470682E-1,2.4913561E-1,3.313574E-1,4.2720592E-1,5.2096224E-1,6.023052E-1,6.980823E-1,8.0261517E-1,9.052642E-1,1.0104688E0,1.1232777E0,6.2064093E-2,6.915231E-2,7.838723E-2,-4.937688E-2,-5.4582275E-2,-4.351018E-2,-4.8353E-2,-3.694662E-2,-4.2403366E-2,-3.0003315E-2,-3.5912916E-2,-2.5646338E-2,-3.0895626E-2,-2.0496367E-2,-2.6161645E-2,-1.4605763E-2,-2.0835197E-2,-8.549861E-3,-1.5668651E-2,-4.3189907E-3,3.2741597E-4,-1.1109328E-2,-6.1365464E-3,2.9531464E-3,8.235612E-3,-2.6088625E-3,2.237699E-3,1.261264E-2,6.6354275E-3,1.6205238E-2,1.1100645E-2,2.0016931E-2,1.5114247E-2,2.5219908E-2,2.0350216E-2,2.968434E-2,2.472163E-2,3.2897472E-2,2.8830556E-2,3.8313407E-2,3.361965E-2,4.3124687E-2,3.901387E-2,4.8316337E-2,4.4317435E-2,5.2806955E-2,4.9378533E-2,5.8187123E-2,5.428175E-2],"categories":[],"categories_nodes":[],"categories_segments":[],"categories_sizes":[],"default_left":[0,0,0,0,0,0,0,0,0,0,0,0,0,0,0,0,0,0,0,0,0,0,0,0,0,0,0,0,0,0,0,0,0,0,0,0,0,0,0,0,0,0,0,0,0,0,0,0,0,0,0,0,0,0,0,0,0,0,0,0,0,0,0,0,0,0,0,0,0,0,0,0,0,0,0,0,0,0,0,0,0,0,0,0,0,0,0,0,0,0,0,0,0,0,0,0,0,0,0,0,0,0,0,0,0,0,0,0,0],"id":3,"left_children":[1,3,5,7,9,11,13,15,17,19,21,23,25,27,29,31,33,35,37,39,41,43,45,47,49,51,53,55,57,59,61,-1,-1,-1,-1,-1,-1,63,65,67,69,71,73,75,77,79,81,83,85,87,89,91,93,95,97,99,101,103,105,107,-1,-1,-1,-1,-1,-1,-1,-1,-1,-1,-1,-1,-1,-1,-1,-1,-1,-1,-1,-1,-1,-1,-1,-1,-1,-1,-1,-1,-1,-1,-1,-1,-1,-1,-1,-1,-1,-1,-1,-1,-1,-1,-1,-1,-1,-1,-1,-1,-1],"loss_changes":[1.4850065E4,2.1151738E3,1.7110342E3,3.4549316E2,3.1283557E2,2.2393823E2,2.766621E2,5.4308594E1,5.225049E1,4.5616577E1,3.6366684E1,2.4004059E1,3.0610718E1,5.2211426E1,3.8199463E1,4.4848633E0,7.602051E0,5.932129E0,4.78833E0,7.87146E0,3.6693726E0,5.2955933E0,4.3327293E0,3.9220428E0,3.424446E0,4.6598206E0,2.8306274E0,6.809082E0,6.61792E0,4.2963867E0,3.5180664E0,0E0,0E0,0E0,0E0,0E0,0E0,4.9432373E-1,3.0249023E-1,1.5023193E0,1.5336914E0,1.439209E0,1.6584778E0,1.9492035E0,2.2382355E0,6.451833E-1,3.339386E0,1.0927124E0,2.921323E0,1.6703205E0,1.4754372E0,1.8343048E0,1.5552826E0,1.7130127E0,8.701782E-1,1.6812744E0,1.2838135E0,9.556885E-1,2.1081543E-1,3.8928223E-1,0E0,0E0,0E0,0E0,0E0,0E0,0E0,0E0,0E0,0E0,0E0,0E0,0E0,0E0,0E0,0E0,0E0,0E0,0E0,0E0,0E0,0E0,0E0,0E0,0E0,0E0,0E0,0E0,0E0,0E0,0E0,0E0,0E0,0E0,0E0,0E0,0E0,0E0,0E0,0E0,0E0,0E0,0E0,0E0,0E0,0E0,0E0,0E0,0E0],"parents":[2147483647,0,0,1,1,2,2,3,3,4,4,5,5,6,6,7,7,8,8,9,9,10,10,11,11,12,12,13,13,14,14,15,15,16,16,17,17,18,18,19,19,20,20,21,21,22,22,23,23,24,24,25,25,26,26,27,27,28,28,29,29,30,30,37,37,38,38,39,39,40,40,41,41,42,42,43,43,44,44,45,45,46,46,47,47,48,48,49,49,50,50,51,51,52,52,53,53,54,54,55,55,56,56,57,57,58,58,59,59],"right_children":[2,4,6,8,10,12,14,16,18,20,22,24,26,28,30,32,34,36,38,40,42,44,46,48,50,52,54,56,58,60,62,-1,-1,-1,-1,-1,-1,64,66,68,70,72,74,76,78,80,82,84,86,88,90,92,94,96,98,100,102,104,106,108,-1,-1,-1,-1,-1,-1,-1,-1,-1,-1,-1,-1,-1,-1,-1,-1,-1,-1,-1,-1,-1,-1,-1,-1,-1,-1,-1,-1,-1,-1,-1,-1,-1,-1,-1,-1,-1,-1,-1,-1,-1,-1,-1,-1,-1,-1,-1,-1,-1],"split_conditions":[-6.501902E-2,-1.0370787E0,7.57493E-1,-1.644616E0,-5.2300864E-1,3.3689028E-1,1.2528696E0,-2.0932589E0,-1.3174806E0,-7.473301E-1,-2.7999374E-1,1.40609E-1,5.612117E-1,1.000508E0,1.5332714E0,-2.4577813E0,-1.8502439E0,-1.4950683E0,-1.1772796E0,-8.8753104E-1,-6.351694E-1,-3.9215448E-1,-3.268766E-1,-8.381502E-2,2.43423E-1,4.49051E-1,6.640257E-1,8.790005E-1,1.1313621E0,1.4024172E0,1.7575928E0,-1.1273389E-1,-9.613847E-2,-8.39581E-2,-7.465589E-2,-6.708821E-2,-6.0183663E-2,-1.31782E0,-1.2430317E0,-1.0560614E0,-9.4387907E-1,-7.6625717E-1,-6.634234E-1,-6.166808E-1,-4.858015E-1,-1.7717974E-1,-1.6783302E-1,1.9101532E-2,3.779499E-2,9.670198E-3,1.9664064E-1,3.368685E-1,4.1165665E-1,5.518845E-1,6.640668E-1,7.5755197E-1,8.790828E-1,9.6321946E-1,1.1221443E0,1.2997663E0,6.2064093E-2,6.915231E-2,7.838723E-2,-4.937688E-2,-5.4582275E-2,-4.351018E-2,-4.8353E-2,-3.694662E-2,-4.2403366E-2,-3.0003315E-2,-3.5912916E-2,-2.5646338E-2,-3.0895626E-2,-2.0496367E-2,-2.6161645E-2,-1.4605763E-2,-2.0835197E-2,-8.549861E-3,-1.5668651E-2,-4.3189907E-3,3.2741597E-4,-1.1109328E-2,-6.1365464E-3,2.9531464E-3,8.235612E-3,-2.6088625E-3,2.237699E-3,1.261264E-2,6.6354275E-3,1.6205238E-2,1.1100645E-2,2.0016931E-2,1.5114247E-2,2.5219908E-2,2.0350216E-2,2.968434E-2,2.472163E-2,3.2897472E-2,2.8830556E-2,3.8313407E-2,3.361965E-2,4.3124687E-2,3.901387E-2,4.8316337E-2,4.4317435E-2,5.2806955E-2,4.9378533E-2,5.8187123E-2,5.428175E-2],"split_indices":[4,4,4,4,4,4,4,4,4,4,4,4,4,4,4,4,4,4,4,4,4,4,6,6,4,4,4,4,4,4,4,0,0,0,0,0,0,6,6,6,6,6,6,6,6,4,4,4,4,6,6,6,6,6,6,6,6,6,6,6,0,0,0,0,0,0,0,0,0,0,0,0,0,0,0,0,0,0,0,0,0,0,0,0,0,0,0,0,0,0,0,0,0,0,0,0,0,0,0,0,0,0,0,0,0,0,0,0,0],"split_type":[0,0,0,0,0,0,0,0,0,0,0,0,0,0,0,0,0,0,0,0,0,0,0,0,0,0,0,0,0,0,0,0,0,0,0,0,0,0,0,0,0,0,0,0,0,0,0,0,0,0,0,0,0,0,0,0,0,0,0,0,0,0,0,0,0,0,0,0,0,0,0,0,0,0,0,0,0,0,0,0,0,0,0,0,0,0,0,0,0,0,0,0,0,0,0,0,0,0,0,0,0,0,0,0,0,0,0,0,0],"sum_hessian":[2.7737E4,1.2506E4,1.5231E4,4.984E3,7.522E3,7.212E3,8.019E3,1.608E3,3.376E3,3.998E3,3.524E3,3.198E3,4.014E3,5.481E3,2.538E3,4.34E2,1.174E3,1.648E3,1.728E3,2.165E3,1.833E3,1.865E3,1.659E3,1.645E3,1.553E3,2.102E3,1.912E3,2.715E3,2.766E3,1.733E3,8.05E2,9.9E1,3.35E2,5.34E2,6.4E2,6.5E2,9.98E2,8.17E2,9.11E2,1.077E3,1.088E3,9.07E2,9.26E2,1.055E3,8.1E2,2.98E2,1.361E3,3.95E2,1.25E3,7.93E2,7.6E2,9.74E2,1.128E3,1.039E3,8.73E2,1.253E3,1.462E3,1.568E3,1.198E3,1.084E3,6.49E2,5.78E2,2.27E2,1.98E2,6.19E2,1.54E2,7.57E2,2.33E2,8.44E2,1.71E2,9.17E2,2.11E2,6.96E2,1.85E2,7.41E2,1.59E2,8.96E2,1.37E2,6.73E2,1.43E2,1.55E2,6.65E2,6.96E2,1.89E2,2.06E2,5.74E2,6.76E2,1.44E2,6.49E2,1.99E2,5.61E2,2.85E2,6.89E2,2.29E2,8.99E2,2.72E2,7.67E2,2.68E2,6.05E2,3.35E2,9.18E2,3.87E2,1.075E3,3.59E2,1.209E3,3.85E2,8.13E2,5.08E2,5.76E2],"tree_param":{"num_deleted":"0","num_feature":"16","num_nodes":"109","size_leaf_vector":"1"}},{"base_weights":[-3.019259E-3,-7.848492E-1,6.178102E-1,-1.2689246E0,-4.7807348E-1,2.7965227E-1,9.306536E-1,-1.6518011E0,-1.1091765E0,-6.7166716E-1,-2.8471303E-1,9.0805925E-2,4.4309705E-1,7.925644E-1,1.1543779E0,-1.976342E0,-1.5489671E0,-1.2317861E0,-9.892258E-1,-7.7671355E-1,-5.8048123E-1,-3.831899E-1,-1.7997931E-1,-1.3113891E-3,1.7849025E-1,3.4986553E-1,5.1910555E-1,7.046897E-1,8.7507725E-1,1.0672207E0,1.3348151E0,-1.07726954E-1,-9.362279E-2,-8.269482E-2,-1.4729834E0,-1.3179988E0,-1.1761516E0,-1.0597935E0,-9.3908983E-1,-6.9119567E-1,-8.0742735E-1,-4.9500394E-1,-6.124377E-1,-3.1136602E-1,-4.2304054E-1,-9.9117205E-2,-2.2003055E-1,7.221888E-2,-4.5638386E-2,2.4007568E-1,1.397074E-1,4.1412115E-1,3.1624323E-1,5.8037084E-1,4.850969E-1,6.517418E-1,7.40582E-1,8.259009E-1,9.1912335E-1,1.0159237E0,1.1290749E0,1.2664148E0,7.273532E-2,-6.83512E-2,-7.564151E-2,-6.109032E-2,-6.750279E-2,-5.408088E-2,-6.035958E-2,-4.8732664E-2,-5.4380406E-2,-4.2228993E-2,-4.866798E-2,-3.6091667E-2,-3.0398635E-2,-4.3101907E-2,-3.812374E-2,-2.6429793E-2,-2.0533215E-2,-3.303785E-2,-2.8556392E-2,-1.881056E-2,-1.3413458E-2,-2.3991643E-2,-1.907652E-2,-8.401495E-3,-3.7219052E-3,-1.3287097E-2,-8.288174E-3,1.3905572E-3,5.9199585E-3,-4.856099E-3,-4.67534E-4,9.9516045E-3,1.4979079E-2,4.853494E-3,9.96492E-3,1.83565E-2,2.2366593E-2,1.3308479E-2,1.7798612E-2,2.671505E-2,3.081528E-2,2.1863658E-2,2.6382029E-2,3.547595E-2,3.0782595E-2,3.958676E-2,3.5444964E-2,4.360399E-2,3.9796125E-2,4.8185315E-2,4.431383E-2,5.323254E-2,4.8965808E-2,5.8986366E-2,5.416278E-2,6.6389166E-2,6.1074544E-2],"categories":[],"categories_nodes":[],"categories_segments":[],"categories_sizes":[],"default_left":[0,0,0,0,0,0,0,0,0,0,0,0,0,0,0,0,0,0,0,0,0,0,0,0,0,0,0,0,0,0,0,0,0,0,0,0,0,0,0,0,0,0,0,0,0,0,0,0,0,0,0,0,0,0,0,0,0,0,0,0,0,0,0,0,0,0,0,0,0,0,0,0,0,0,0,0,0,0,0,0,0,0,0,0,0,0,0,0,0,0,0,0,0,0,0,0,0,0,0,0,0,0,0,0,0,0,0,0,0,0,0,0,0,0,0,0,0,0,0],"id":4,"left_children":[1,3,5,7,9,11,13,15,17,19,21,23,25,27,29,31,33,35,37,39,41,43,45,47,49,51,53,55,57,59,61,-1,-1,-1,63,65,67,69,71,73,75,77,79,81,83,85,87,89,91,93,95,97,99,101,103,105,107,109,111,113,115,117,-1,-1,-1,-1,-1,-1,-1,-1,-1,-1,-1,-1,-1,-1,-1,-1,-1,-1,-1,-1,-1,-1,-1,-1,-1,-1,-1,-1,-1,-1,-1,-1,-1,-1,-1,-1,-1,-1,-1,-1,-1,-1,-1,-1,-1,-1,-1,-1,-1,-1,-1,-1,-1,-1,-1,-1,-1],"loss_changes":[1.3455788E4,1.821521E3,1.6344141E3,2.892461E2,2.8100806E2,2.2920111E2,2.4703955E2,4.3628418E1,4.8212402E1,3.549817E1,3.871109E1,2.7842493E1,2.8029358E1,3.5390625E1,4.671411E1,2.130249E0,6.070801E0,6.4023438E0,5.0335693E0,4.0147705E0,5.1954346E0,5.412384E0,5.8854446E0,5.4855666E0,4.1844788E0,3.7383423E0,4.2835083E0,4.09729E0,4.779541E0,5.4174805E0,6.3009033E0,0E0,0E0,0E0,5.83374E-1,3.302002E-1,1.6784668E0,5.975952E-1,2.4329834E0,7.518921E-1,2.4726562E0,1.3496399E0,2.5388794E0,1.8413391E0,2.7472687E0,1.0181184E0,2.979828E0,1.2948394E0,1.9607244E0,1.6036072E0,2.739977E0,7.908554E-1,2.252716E0,9.5706177E-1,2.6482239E0,1.6108398E0,1.7546387E0,9.920654E-1,1.1082764E0,9.925537E-1,8.781738E-1,1.4257812E-1,0E0,0E0,0E0,0E0,0E0,0E0,0E0,0E0,0E0,0E0,0E0,0E0,0E0,0E0,0E0,0E0,0E0,0E0,0E0,0E0,0E0,0E0,0E0,0E0,0E0,0E0,0E0,0E0,0E0,0E0,0E0,0E0,0E0,0E0,0E0,0E0,0E0,0E0,0E0,0E0,0E0,0E0,0E0,0E0,0E0,0E0,0E0,0E0,0E0,0E0,0E0,0E0,0E0,0E0,0E0,0E0,0E0],"parents":[2147483647,0,0,1,1,2,2,3,3,4,4,5,5,6,6,7,7,8,8,9,9,10,10,11,11,12,12,13,13,14,14,15,15,16,16,17,17,18,18,19,19,20,20,21,21,22,22,23,23,24,24,25,25,26,26,27,27,28,28,29,29,30,30,34,34,35,35,36,36,37,37,38,38,39,39,40,40,41,41,42,42,43,43,44,44,45,45,46,46,47,47,48,48,49,49,50,50,51,51,52,52,53,53,54,54,55,55,56,56,57,57,58,58,59,59,60,60,61,61],"right_children":[2,4,6,8,10,12,14,16,18,20,22,24,26,28,30,32,34,36,38,40,42,44,46,48,50,52,54,56,58,60,62,-1,-1,-1,64,66,68,70,72,74,76,78,80,82,84,86,88,90,92,94,96,98,100,102,104,106,108,110,112,114,116,118,-1,-1,-1,-1,-1,-1,-1,-1,-1,-1,-1,-1,-1,-1,-1,-1,-1,-1,-1,-1,-1,-1,-1,-1,-1,-1,-1,-1,-1,-1,-1,-1,-1,-1,-1,-1,-1,-1,-1,-1,-1,-1,-1,-1,-1,-1,-1,-1,-1,-1,-1,-1,-1,-1,-1,-1,-1],"split_conditions":[-1.0240593E-1,-1.0744656E0,7.57493E-1,-1.7006963E0,-5.8843577E-1,3.3689028E-1,1.1967891E0,-2.1773794E0,-1.3548675E0,-8.314507E-1,-3.4542084E-1,1.1256881E-1,5.3317153E-1,9.724677E-1,1.4865378E0,-2.4577813E0,-1.9343646E0,-1.5418019E0,-1.2333599E0,-7.0711607E-1,-7.0711607E-1,-3.660555E-1,-3.660555E-1,-3.660555E-1,-3.660555E-1,-3.660555E-1,-3.660555E-1,8.509603E-1,1.0752817E0,1.3276434E0,1.6921657E0,-1.07726954E-1,-9.362279E-2,-8.269482E-2,-7.0711607E-1,-7.0711607E-1,-7.0711607E-1,-7.0711607E-1,-7.0711607E-1,-9.062245E-1,-9.6230483E-1,6.367743E-1,-7.1928996E-1,-4.9496847E-1,-4.8562175E-1,-2.7999374E-1,-2.0521992E-1,9.754805E-3,-1.8285377E-2,2.43423E-1,2.527697E-1,4.2101082E-1,4.3035755E-1,6.3598555E-1,6.3598555E-1,-3.660555E-1,-3.660555E-1,-3.660555E-1,-3.660555E-1,-3.660555E-1,-3.660555E-1,-7.0711607E-1,7.273532E-2,-6.83512E-2,-7.564151E-2,-6.109032E-2,-6.750279E-2,-5.408088E-2,-6.035958E-2,-4.8732664E-2,-5.4380406E-2,-4.2228993E-2,-4.866798E-2,-3.6091667E-2,-3.0398635E-2,-4.3101907E-2,-3.812374E-2,-2.6429793E-2,-2.0533215E-2,-3.303785E-2,-2.8556392E-2,-1.881056E-2,-1.3413458E-2,-2.3991643E-2,-1.907652E-2,-8.401495E-3,-3.7219052E-3,-1.3287097E-2,-8.288174E-3,1.3905572E-3,5.9199585E-3,-4.856099E-3,-4.67534E-4,9.9516045E-3,1.4979079E-2,4.853494E-3,9.96492E-3,1.83565E-2,2.2366593E-2,1.3308479E-2,1.7798612E-2,2.671505E-2,3.081528E-2,2.1863658E-2,2.6382029E-2,3.547595E-2,3.0782595E-2,3.958676E-2,3.5444964E-2,4.360399E-2,3.9796125E-2,4.8185315E-2,4.431383E-2,5.323254E-2,4.8965808E-2,5.8986366E-2,5.416278E-2,6.6389166E-2,6.1074544E-2],"split_indices":[4,4,4,4,4,4,4,4,4,4,4,4,4,4,4,4,4,4,4,1,1,1,1,1,1,1,1,4,4,4,4,0,0,0,1,1,1,1,1,4,4,13,4,4,4,4,4,4,4,4,4,4,4,4,4,1,1,1,1,1,1,1,0,0,0,0,0,0,0,0,0,0,0,0,0,0,0,0,0,0,0,0,0,0,0,0,0,0,0,0,0,0,0,0,0,0,0,0,0,0,0,0,0,0,0,0,0,0,0,0,0,0,0,0,0,0,0,0,0],"split_type":[0,0,0,0,0,0,0,0,0,0,0,0,0,0,0,0,0,0,0,0,0,0,0,0,0,0,0,0,0,0,0,0,0,0,0,0,0,0,0,0,0,0,0,0,0,0,0,0,0,0,0,0,0,0,0,0,0,0,0,0,0,0,0,0,0,0,0,0,0,0,0,0,0,0,0,0,0,0,0,0,0,0,0,0,0,0,0,0,0,0,0,0,0,0,0,0,0,0,0,0,0,0,0,0,0,0,0,0,0,0,0,0,0,0,0,0,0,0,0],"sum_hessian":[2.772E4,1.2269E4,1.5451E4,4.758E3,7.511E3,7.426E3,8.025E3,1.398E3,3.36E3,3.752E3,3.759E3,3.446E3,3.98E3,4.965E3,3.06E3,3.32E2,1.066E3,1.657E3,1.703E3,1.74E3,2.012E3,1.936E3,1.823E3,1.681E3,1.765E3,1.79E3,2.19E3,2.409E3,2.556E3,2.068E3,9.92E2,1.15E2,2.17E2,4.39E2,6.27E2,6.41E2,1.016E3,6.99E2,1.004E3,4.66E2,1.274E3,5.52E2,1.46E3,6.94E2,1.242E3,6.05E2,1.218E3,6.32E2,1.049E3,6.8E2,1.085E3,6.11E2,1.179E3,7.76E2,1.414E3,9.81E2,1.428E3,1.217E3,1.339E3,1.14E3,9.28E2,6.39E2,3.53E2,1.81E2,4.46E2,1.7E2,4.71E2,2.6E2,7.56E2,1.81E2,5.18E2,2.74E2,7.3E2,3.35E2,1.31E2,5.67E2,7.07E2,3.91E2,1.61E2,6.66E2,7.94E2,2.74E2,4.2E2,5.2E2,7.22E2,1.58E2,4.47E2,6.59E2,5.59E2,3.23E2,3.09E2,4.33E2,6.16E2,4.05E2,2.75E2,6.34E2,4.51E2,2.58E2,3.53E2,5.25E2,6.54E2,3.47E2,4.29E2,6.71E2,7.43E2,3.7E2,6.11E2,5.37E2,8.91E2,4.68E2,7.49E2,5.56E2,7.83E2,4.77E2,6.63E2,4.29E2,4.99E2,2.58E2,3.81E2],"tree_param":{"num_deleted":"0","num_feature":"16","num_nodes":"119","size_leaf_vector":"1"}},{"base_weights":[-8.62329E-4,-7.298513E-1,5.984863E-1,-1.1775784E0,-4.2492586E-1,2.72265E-1,8.76002E-1,-1.5328655E0,-1.0159234E0,-5.967687E-1,-2.2893205E-1,1.172483E-1,4.290218E-1,7.4029684E-1,1.0857737E0,-1.8168297E0,-1.4268006E0,-1.1284055E0,-8.984663E-1,-6.9350576E-1,-5.0340366E-1,-3.2253516E-1,-1.4111067E-1,3.2510813E-2,2.0494117E-1,3.6497557E-1,5.0279343E-1,6.4562964E-1,8.099351E-1,9.9960274E-1,1.255613E0,-1.0237624E-1,-8.659253E-2,-7.5835384E-2,-1.3499174E0,-1.1909964E0,-1.0639117E0,-9.5123553E-1,-8.4514576E-1,-7.359964E-1,-6.31761E-1,-4.227602E-1,-5.3274995E-1,-2.3625101E-1,-3.5427248E-1,-6.349559E-2,-1.7948014E-1,1.0089223E-1,-1.0287777E-2,2.6688042E-1,1.6667865E-1,4.2263603E-1,3.3315873E-1,5.595725E-1,4.6837643E-1,6.966035E-1,6.1339146E-1,7.6461476E-1,8.583942E-1,9.479792E-1,1.053226E0,1.1819799E0,1.3617767E0,-6.28696E-2,-6.912925E-2,-5.522978E-2,-6.103276E-2,-4.862691E-2,-5.4661382E-2,-4.318906E-2,-4.9166214E-2,-3.815671E-2,-4.3837007E-2,-3.2673016E-2,-3.8327396E-2,-2.7851949E-2,-3.3393797E-2,-2.2975555E-2,-1.7326586E-2,-2.8732633E-2,-2.4007667E-2,-1.40120825E-2,-8.930503E-3,-1.9803613E-2,-1.5752306E-2,-4.760887E-3,-6.4520113E-4,-1.1071532E-2,-6.4861597E-3,2.9563287E-3,6.9569494E-3,-2.781468E-3,1.7090768E-3,1.1239498E-2,1.5504791E-2,5.9500053E-3,1.05405785E-2,1.9511292E-2,2.2992766E-2,1.4441671E-2,1.823981E-2,2.6723146E-2,2.990649E-2,2.159666E-2,2.4616001E-2,3.2665815E-2,3.6328856E-2,2.8927326E-2,3.2820832E-2,4.056803E-2,3.675366E-2,4.5088086E-2,4.1293316E-2,4.9638364E-2,4.574123E-2,5.5548348E-2,5.0774265E-2,6.1501604E-2,5.629905E-2,6.5717116E-2,7.4126326E-2],"categories":[],"categories_nodes":[],"categories_segments":[],"categories_sizes":[],"default_left":[0,0,0,0,0,0,0,0,0,0,0,0,0,0,0,0,0,0,0,0,0,0,0,0,0,0,0,0,0,0,0,0,0,0,0,0,0,0,0,0,0,0,0,0,0,0,0,0,0,0,0,0,0,0,0,0,0,0,0,0,0,0,0,0,0,0,0,0,0,0,0,0,0,0,0,0,0,0,0,0,0,0,0,0,0,0,0,0,0,0,0,0,0,0,0,0,0,0,0,0,0,0,0,0,0,0,0,0,0,0,0,0,0,0,0,0,0,0,0,0,0],"id":5,"left_children":[1,3,5,7,9,11,13,15,17,19,21,23,25,27,29,31,33,35,37,39,41,43,45,47,49,51,53,55,57,59,61,-1,-1,-1,63,65,67,69,71,73,75,77,79,81,83,85,87,89,91,93,95,97,99,101,103,105,107,109,111,113,115,117,119,-1,-1,-1,-1,-1,-1,-1,-1,-1,-1,-1,-1,-1,-1,-1,-1,-1,-1,-1,-1,-1,-1,-1,-1,-1,-1,-1,-1,-1,-1,-1,-1,-1,-1,-1,-1,-1,-1,-1,-1,-1,-1,-1,-1,-1,-1,-1,-1,-1,-1,-1,-1,-1,-1,-1,-1,-1,-1],"loss_changes":[1.217692E4,1.7162812E3,1.3844419E3,2.9101074E2,2.5185815E2,1.7082672E2,2.3444775E2,4.5326416E1,4.5280273E1,3.5651855E1,2.8701065E1,2.6276333E1,1.6334412E1,3.257788E1,4.622168E1,4.864258E0,5.991455E0,5.942383E0,4.032837E0,4.6640625E0,4.583679E0,4.5497284E0,5.3669624E0,5.2689695E0,4.0744934E0,3.2990265E0,2.9075623E0,3.0778809E0,5.6883545E0,4.972412E0,6.895508E0,0E0,0E0,0E0,1.8383789E-1,9.5288086E-1,1.3181763E0,1.5527954E0,1.5696411E0,2.4039917E0,1.7976379E0,1.3731613E0,2.9991455E0,1.1112785E0,1.9001923E0,9.600904E-1,2.4927711E0,1.098772E0,2.2359717E0,1.1344414E0,2.2411308E0,6.203232E-1,1.5956726E0,2.679901E-1,6.7388916E-1,5.8792114E-1,1.5917053E0,1.4777832E0,1.2132568E0,7.3864746E-1,1.1578369E0,3.6401367E-1,5.6591797E-1,0E0,0E0,0E0,0E0,0E0,0E0,0E0,0E0,0E0,0E0,0E0,0E0,0E0,0E0,0E0,0E0,0E0,0E0,0E0,0E0,0E0,0E0,0E0,0E0,0E0,0E0,0E0,0E0,0E0,0E0,0E0,0E0,0E0,0E0,0E0,0E0,0E0,0E0,0E0,0E0,0E0,0E0,0E0,0E0,0E0,0E0,0E0,0E0,0E0,0E0,0E0,0E0,0E0,0E0,0E0,0E0,0E0,0E0],"parents":[2147483647,0,0,1,1,2,2,3,3,4,4,5,5,6,6,7,7,8,8,9,9,10,10,11,11,12,12,13,13,14,14,15,15,16,16,17,17,18,18,19,19,20,20,21,21,22,22,23,23,24,24,25,25,26,26,27,27,28,28,29,29,30,30,34,34,35,35,36,36,37,37,38,38,39,39,40,40,41,41,42,42,43,43,44,44,45,45,46,46,47,47,48,48,49,49,50,50,51,51,52,52,53,53,54,54,55,55,56,56,57,57,58,58,59,59,60,60,61,61,62,62],"right_children":[2,4,6,8,10,12,14,16,18,20,22,24,26,28,30,32,34,36,38,40,42,44,46,48,50,52,54,56,58,60,62,-1,-1,-1,64,66,68,70,72,74,76,78,80,82,84,86,88,90,92,94,96,98,100,102,104,106,108,110,112,114,116,118,120,-1,-1,-1,-1,-1,-1,-1,-1,-1,-1,-1,-1,-1,-1,-1,-1,-1,-1,-1,-1,-1,-1,-1,-1,-1,-1,-1,-1,-1,-1,-1,-1,-1,-1,-1,-1,-1,-1,-1,-1,-1,-1,-1,-1,-1,-1,-1,-1,-1,-1,-1,-1,-1,-1,-1,-1,-1,-1],"split_conditions":[-6.501902E-2,-1.0277319E0,7.387996E-1,-1.644616E0,-5.2300864E-1,3.7427717E-1,1.1780957E0,-2.0932589E0,-1.298787E0,-7.660236E-1,-2.986872E-1,1.5930244E-1,5.705584E-1,9.350808E-1,1.4678442E0,-2.4577813E0,-1.8502439E0,-1.4483347E0,-1.1585861E0,-8.688376E-1,-7.0711607E-1,-7.0711607E-1,-3.660555E-1,-3.660555E-1,-3.660555E-1,-3.660555E-1,-3.660555E-1,-3.660555E-1,1.0565883E0,1.2996032E0,1.6454321E0,-1.0237624E-1,-8.659253E-2,-7.5835384E-2,-7.0711607E-1,-7.0711607E-1,-7.0711607E-1,-7.0711607E-1,-7.0711607E-1,-7.0711607E-1,-3.660555E-1,6.367743E-1,-6.351694E-1,-4.015012E-1,-4.2019466E-1,7.358648E-1,-1.6783302E-1,4.7141716E-2,4.7141716E-2,2.714632E-1,2.714632E-1,4.8643792E-1,4.6774447E-1,6.7337245E-1,6.3598555E-1,8.229201E-1,8.509603E-1,-3.660555E-1,-3.660555E-1,-3.660555E-1,-7.0711607E-1,-3.660555E-1,1.8417134E0,-6.28696E-2,-6.912925E-2,-5.522978E-2,-6.103276E-2,-4.862691E-2,-5.4661382E-2,-4.318906E-2,-4.9166214E-2,-3.815671E-2,-4.3837007E-2,-3.2673016E-2,-3.8327396E-2,-2.7851949E-2,-3.3393797E-2,-2.2975555E-2,-1.7326586E-2,-2.8732633E-2,-2.4007667E-2,-1.40120825E-2,-8.930503E-3,-1.9803613E-2,-1.5752306E-2,-4.760887E-3,-6.4520113E-4,-1.1071532E-2,-6.4861597E-3,2.9563287E-3,6.9569494E-3,-2.781468E-3,1.7090768E-3,1.1239498E-2,1.5504791E-2,5.9500053E-3,1.05405785E-2,1.9511292E-2,2.2992766E-2,1.4441671E-2,1.823981E-2,2.6723146E-2,2.990649E-2,2.159666E-2,2.4616001E-2,3.2665815E-2,3.6328856E-2,2.8927326E-2,3.2820832E-2,4.056803E-2,3.675366E-2,4.5088086E-2,4.1293316E-2,4.9638364E-2,4.574123E-2,5.5548348E-2,5.0774265E-2,6.1501604E-2,5.629905E-2,6.5717116E-2,7.4126326E-2],"split_indices":[4,4,4,4,4,4,4,4,4,4,4,4,4,4,4,4,4,4,4,4,1,1,1,1,1,1,1,1,4,4,4,0,0,0,1,1,1,1,1,1,1,13,4,4,4,13,4,4,4,4,4,4,4,4,4,4,4,1,1,1,1,1,4,0,0,0,0,0,0,0,0,0,0,0,0,0,0,0,0,0,0,0,0,0,0,0,0,0,0,0,0,0,0,0,0,0,0,0,0,0,0,0,0,0,0,0,0,0,0,0,0,0,0,0,0,0,0,0,0,0,0],"split_type":[0,0,0,0,0,0,0,0,0,0,0,0,0,0,0,0,0,0,0,0,0,0,0,0,0,0,0,0,0,0,0,0,0,0,0,0,0,0,0,0,0,0,0,0,0,0,0,0,0,0,0,0,0,0,0,0,0,0,0,0,0,0,0,0,0,0,0,0,0,0,0,0,0,0,0,0,0,0,0,0,0,0,0,0,0,0,0,0,0,0,0,0,0,0,0,0,0,0,0,0,0,0,0,0,0,0,0,0,0,0,0,0,0,0,0,0,0,0,0,0,0],"sum_hessian":[2.7868E4,1.2574E4,1.5294E4,5.093E3,7.481E3,7.031E3,8.263E3,1.59E3,3.503E3,3.985E3,3.496E3,3.536E3,3.495E3,5.02E3,3.243E3,4.28E2,1.162E3,1.785E3,1.718E3,1.954E3,2.031E3,1.691E3,1.805E3,1.799E3,1.737E3,1.874E3,1.621E3,2.132E3,2.888E3,2.156E3,1.087E3,1.09E2,3.19E2,5.27E2,6.35E2,8.97E2,8.88E2,8.55E2,8.63E2,1.151E3,8.03E2,5.46E2,1.485E3,4.57E2,1.234E3,5.98E2,1.207E3,6.92E2,1.107E3,6.61E2,1.076E3,6.62E2,1.212E3,6.06E2,1.015E3,8.18E2,1.314E3,1.501E3,1.387E3,1.108E3,1.048E3,6.49E2,4.38E2,1.76E2,4.59E2,2.39E2,6.58E2,2.24E2,6.64E2,2.37E2,6.18E2,2.47E2,6.16E2,3.17E2,8.34E2,2.67E2,5.36E2,3.65E2,1.81E2,8.21E2,6.64E2,2.57E2,2E2,5.93E2,6.41E2,3.67E2,2.31E2,6.53E2,5.54E2,3.32E2,3.6E2,5.48E2,5.59E2,3.38E2,3.23E2,5.19E2,5.57E2,3.6E2,3.02E2,5.09E2,7.03E2,3.76E2,2.3E2,4.1E2,6.05E2,3.44E2,4.74E2,7.34E2,5.8E2,5.71E2,9.3E2,5.83E2,8.04E2,4.59E2,6.49E2,4.03E2,6.45E2,3.38E2,3.11E2,3.23E2,1.15E2],"tree_param":{"num_deleted":"0","num_feature":"16","num_nodes":"121","size_leaf_vector":"1"}},{"base_weights":[-4.1825823E-3,-7.223762E-1,5.448005E-1,-1.1520976E0,-4.4855645E-1,2.2855331E-1,8.2759994E-1,-1.4922357E0,-1.0060899E0,-6.119101E-1,-2.7094513E-1,5.5920485E-2,3.759225E-1,6.9810474E-1,1.033339E0,-1.7786628E0,-1.4004792E0,-1.1298339E0,-9.1396666E-1,-7.1341425E-1,-5.306766E-1,-3.5865158E-1,-1.8690708E-1,-2.5434518E-2,1.3068604E-1,2.9054523E-1,4.4384694E-1,6.0271615E-1,7.676099E-1,9.5127374E-1,1.1916008E0,-9.698934E-2,-8.478054E-2,-7.4735574E-2,-1.3322005E0,-1.1907017E0,-1.0768529E0,-9.6868044E-1,-8.536779E-1,-6.3642216E-1,-7.4188524E-1,-4.6566606E-1,-5.6590474E-1,-2.808404E-1,-3.8623637E-1,-1.1658765E-1,-2.2214597E-1,5.458333E-2,-5.7584792E-2,1.8765041E-1,9.4511084E-2,3.5068712E-1,2.5770658E-1,4.9969864E-1,4.1272047E-1,6.526785E-1,5.710709E-1,7.238187E-1,8.155055E-1,9.109277E-1,1.0130146E0,1.1067982E0,1.2732892E0,-6.1794825E-2,-6.833076E-2,-5.5438854E-2,-6.0887076E-2,-4.966535E-2,-5.5286553E-2,-4.4456057E-2,-4.978114E-2,-3.9127093E-2,-4.452299E-2,-3.3786528E-2,-2.9249145E-2,-3.914466E-2,-3.482151E-2,-2.60495E-2,-2.144271E-2,-3.0596314E-2,-2.601307E-2,-1.7138133E-2,-1.1402986E-2,-2.1402622E-2,-1.7666673E-2,-8.531353E-3,-4.054117E-3,-1.3812556E-2,-9.218969E-3,1.0666383E-3,4.6974635E-3,-4.479258E-3,-8.0425706E-4,6.9259587E-3,1.1562842E-2,2.8201672E-3,6.8997242E-3,1.3913316E-2,1.8566897E-2,1.0730857E-2,1.4590736E-2,2.2600804E-2,2.67034E-2,1.813295E-2,2.2347463E-2,3.0501232E-2,3.3934306E-2,2.6076479E-2,3.0041823E-2,3.8522538E-2,3.473424E-2,4.3154888E-2,3.9562196E-2,4.7696486E-2,4.3919537E-2,5.289483E-2,4.857712E-2,5.827194E-2,5.323645E-2,6.1855137E-2,7.012331E-2],"categories":[],"categories_nodes":[],"categories_segments":[],"categories_sizes":[],"default_left":[0,0,0,0,0,0,0,0,0,0,0,0,0,0,0,0,0,0,0,0,0,0,0,0,0,0,0,0,0,0,0,0,0,0,0,0,0,0,0,0,0,0,0,0,0,0,0,0,0,0,0,0,0,0,0,0,0,0,0,0,0,0,0,0,0,0,0,0,0,0,0,0,0,0,0,0,0,0,0,0,0,0,0,0,0,0,0,0,0,0,0,0,0,0,0,0,0,0,0,0,0,0,0,0,0,0,0,0,0,0,0,0,0,0,0,0,0,0,0,0,0],"id":6,"left_children":[1,3,5,7,9,11,13,15,17,19,21,23,25,27,29,31,33,35,37,39,41,43,45,47,49,51,53,55,57,59,61,-1,-1,-1,63,65,67,69,71,73,75,77,79,81,83,85,87,89,91,93,95,97,99,101,103,105,107,109,111,113,115,117,119,-1,-1,-1,-1,-1,-1,-1,-1,-1,-1,-1,-1,-1,-1,-1,-1,-1,-1,-1,-1,-1,-1,-1,-1,-1,-1,-1,-1,-1,-1,-1,-1,-1,-1,-1,-1,-1,-1,-1,-1,-1,-1,-1,-1,-1,-1,-1,-1,-1,-1,-1,-1,-1,-1,-1,-1,-1,-1],"loss_changes":[1.0886359E4,1.4070063E3,1.3993716E3,2.2967871E2,2.1186462E2,1.8796075E2,2.1936963E2,3.4198242E1,3.613037E1,3.1004028E1,2.5752472E1,2.0708332E1,2.2986633E1,3.317163E1,4.0284668E1,1.1937256E0,4.841797E0,3.1906738E0,5.3547363E0,3.2301636E0,4.587097E0,3.5683136E0,4.412155E0,4.199047E0,3.6379166E0,3.403366E0,3.6496582E0,3.015503E0,5.557129E0,4.3206787E0,6.1068115E0,0E0,0E0,0E0,3.8232422E-1,5.871582E-2,7.160034E-1,1.2047119E0,1.657959E0,5.4089355E-1,1.7419434E0,1.3040161E0,2.557312E0,1.3990974E0,1.5851135E0,1.1373768E0,2.384758E0,6.105796E-1,1.5443556E0,1.4419651E0,1.7934351E0,8.269043E-1,1.624588E0,1.0516205E0,2.2882843E0,5.0009155E-1,1.6331787E0,1.5570679E0,9.2437744E-1,9.572754E-1,5.041504E-1,9.1308594E-2,8.1726074E-1,0E0,0E0,0E0,0E0,0E0,0E0,0E0,0E0,0E0,0E0,0E0,0E0,0E0,0E0,0E0,0E0,0E0,0E0,0E0,0E0,0E0,0E0,0E0,0E0,0E0,0E0,0E0,0E0,0E0,0E0,0E0,0E0,0E0,0E0,0E0,0E0,0E0,0E0,0E0,0E0,0E0,0E0,0E0,0E0,0E0,0E0,0E0,0E0,0E0,0E0,0E0,0E0,0E0,0E0,0E0,0E0,0E0,0E0],"parents":[2147483647,0,0,1,1,2,2,3,3,4,4,5,5,6,6,7,7,8,8,9,9,10,10,11,11,12,12,13,13,14,14,15,15,16,16,17,17,18,18,19,19,20,20,21,21,22,22,23,23,24,24,25,25,26,26,27,27,28,28,29,29,30,30,34,34,35,35,36,36,37,37,38,38,39,39,40,40,41,41,42,42,43,43,44,44,45,45,46,46,47,47,48,48,49,49,50,50,51,51,52,52,53,53,54,54,55,55,56,56,57,57,58,58,59,59,60,60,61,61,62,62],"right_children":[2,4,6,8,10,12,14,16,18,20,22,24,26,28,30,32,34,36,38,40,42,44,46,48,50,52,54,56,58,60,62,-1,-1,-1,64,66,68,70,72,74,76,78,80,82,84,86,88,90,92,94,96,98,100,102,104,106,108,110,112,114,116,118,120,-1,-1,-1,-1,-1,-1,-1,-1,-1,-1,-1,-1,-1,-1,-1,-1,-1,-1,-1,-1,-1,-1,-1,-1,-1,-1,-1,-1,-1,-1,-1,-1,-1,-1,-1,-1,-1,-1,-1,-1,-1,-1,-1,-1,-1,-1,-1,-1,-1,-1,-1,-1,-1,-1,-1,-1,-1,-1],"split_conditions":[-1.304461E-1,-1.0931591E0,7.201061E-1,-1.7006963E0,-5.8843577E-1,2.9950336E-1,1.1780957E0,-2.1773794E0,-1.4016011E0,-8.5014415E-1,-3.7346104E-1,7.51819E-2,4.9578464E-1,9.257341E-1,1.4678442E0,-2.4577813E0,-1.9343646E0,-1.5418019E0,-1.2333599E0,-7.0711607E-1,-3.660555E-1,-7.0711607E-1,-3.660555E-1,-7.0711607E-1,-3.660555E-1,-3.660555E-1,-3.660555E-1,-3.660555E-1,1.0565883E0,1.3276434E0,1.6080452E0,-9.698934E-2,-8.478054E-2,-7.4735574E-2,-7.0711607E-1,-7.0711607E-1,-7.0711607E-1,-7.0711607E-1,-3.660555E-1,-9.6230483E-1,-9.6230483E-1,-7.379834E-1,-7.1928996E-1,5.655567E-4,-4.9496847E-1,-2.7999374E-1,-2.7064702E-1,-1.8285377E-2,-1.8285377E-2,1.6864917E-1,1.9668935E-1,-7.0658445E-1,3.9297062E-1,5.8925194E-1,5.8925194E-1,8.0422664E-1,8.0422664E-1,-3.660555E-1,-7.0711607E-1,-3.660555E-1,-3.660555E-1,-7.0711607E-1,1.8417134E0,-6.1794825E-2,-6.833076E-2,-5.5438854E-2,-6.0887076E-2,-4.966535E-2,-5.5286553E-2,-4.4456057E-2,-4.978114E-2,-3.9127093E-2,-4.452299E-2,-3.3786528E-2,-2.9249145E-2,-3.914466E-2,-3.482151E-2,-2.60495E-2,-2.144271E-2,-3.0596314E-2,-2.601307E-2,-1.7138133E-2,-1.1402986E-2,-2.1402622E-2,-1.7666673E-2,-8.531353E-3,-4.054117E-3,-1.3812556E-2,-9.218969E-3,1.0666383E-3,4.6974635E-3,-4.479258E-3,-8.0425706E-4,6.9259587E-3,1.1562842E-2,2.8201672E-3,6.8997242E-3,1.3913316E-2,1.8566897E-2,1.0730857E-2,1.4590736E-2,2.2600804E-2,2.67034E-2,1.813295E-2,2.2347463E-2,3.0501232E-2,3.3934306E-2,2.6076479E-2,3.0041823E-2,3.8522538E-2,3.473424E-2,4.3154888E-2,3.9562196E-2,4.7696486E-2,4.3919537E-2,5.289483E-2,4.857712E-2,5.827194E-2,5.323645E-2,6.1855137E-2,7.012331E-2],"split_indices":[4,4,4,4,4,4,4,4,4,4,4,4,4,4,4,4,4,4,4,1,1,1,1,1,1,1,1,1,4,4,4,0,0,0,1,1,1,1,1,4,4,4,4,0,4,4,4,4,4,4,4,0,4,4,4,4,4,1,1,1,1,1,4,0,0,0,0,0,0,0,0,0,0,0,0,0,0,0,0,0,0,0,0,0,0,0,0,0,0,0,0,0,0,0,0,0,0,0,0,0,0,0,0,0,0,0,0,0,0,0,0,0,0,0,0,0,0,0,0,0,0],"split_type":[0,0,0,0,0,0,0,0,0,0,0,0,0,0,0,0,0,0,0,0,0,0,0,0,0,0,0,0,0,0,0,0,0,0,0,0,0,0,0,0,0,0,0,0,0,0,0,0,0,0,0,0,0,0,0,0,0,0,0,0,0,0,0,0,0,0,0,0,0,0,0,0,0,0,0,0,0,0,0,0,0,0,0,0,0,0,0,0,0,0,0,0,0,0,0,0,0,0,0,0,0,0,0,0,0,0,0,0,0,0,0,0,0,0,0,0,0,0,0,0,0],"sum_hessian":[2.7609E4,1.1961E4,1.5648E4,4.654E3,7.307E3,7.388E3,8.26E3,1.395E3,3.259E3,3.805E3,3.502E3,3.403E3,3.985E3,5.072E3,3.188E3,3.34E2,1.061E3,1.386E3,1.873E3,1.688E3,2.117E3,1.712E3,1.79E3,1.63E3,1.773E3,1.768E3,2.217E3,2.142E3,2.93E3,2.104E3,1.084E3,1.06E2,2.28E2,4.37E2,6.24E2,6.35E2,7.51E2,9.74E2,8.99E2,4.62E2,1.226E3,7.49E2,1.368E3,4.51E2,1.261E3,5.99E2,1.191E3,4.67E2,1.163E3,6.87E2,1.086E3,6.21E2,1.147E3,7.88E2,1.429E3,8.23E2,1.319E3,1.539E3,1.391E3,1.282E3,8.22E2,5.39E2,5.45E2,1.74E2,4.5E2,1.68E2,4.67E2,2.02E2,5.49E2,2.55E2,7.19E2,3.14E2,5.85E2,2.55E2,2.07E2,6.36E2,5.9E2,2.94E2,4.55E2,6.75E2,6.93E2,2.05E2,2.46E2,5.5E2,7.11E2,2.36E2,3.63E2,4.87E2,7.04E2,2.54E2,2.13E2,6.56E2,5.07E2,3.25E2,3.62E2,5.8E2,5.06E2,1.41E2,4.8E2,5.1E2,6.37E2,3.36E2,4.52E2,5.85E2,8.44E2,3.21E2,5.02E2,5.02E2,8.17E2,5.82E2,9.57E2,4.58E2,9.33E2,5.4E2,7.42E2,3.83E2,4.39E2,2.14E2,3.25E2,4.34E2,1.11E2],"tree_param":{"num_deleted":"0","num_feature":"16","num_nodes":"121","size_leaf_vector":"1"}},{"base_weights":[3.2686598E-3,-6.830158E-1,5.185982E-1,-1.0961331E0,-4.254842E-1,2.2397052E-1,7.924507E-1,-1.4348541E0,-9.6663415E-1,-5.8172303E-1,-2.5446272E-1,5.4718133E-2,3.6230505E-1,6.660055E-1,9.772598E-1,-1.6861186E0,-1.3463602E0,-1.082656E0,-8.6975706E-1,-6.7074096E-1,-4.9928507E-1,-3.3995962E-1,-1.7443721E-1,-2.7525207E-2,1.2309373E-1,2.8166157E-1,4.3411535E-1,5.8665466E-1,7.313434E-1,9.0087885E-1,1.1341742E0,-9.230302E-2,-8.023416E-2,-7.128234E-2,-1.2805688E0,-1.138696E0,-1.0223925E0,-9.1969943E-1,-8.1226957E-1,-5.9584284E-1,-6.9799435E-1,-4.3835583E-1,-5.3180915E-1,-2.7899447E-1,-3.7314072E-1,-1.0143142E-1,-2.1055523E-1,3.7111953E-2,-6.439594E-2,1.7745493E-1,8.687231E-2,3.3797953E-1,2.5150362E-1,4.9752113E-1,4.089497E-1,6.331019E-1,5.5756974E-1,6.910046E-1,7.662962E-1,8.56231E-1,9.5145226E-1,1.0531849E0,1.2087996E0,-5.797555E-2,-6.532233E-2,-5.3134907E-2,-5.8320433E-2,-4.7049526E-2,-5.258701E-2,-4.2170927E-2,-4.731741E-2,-3.6580056E-2,-4.2024404E-2,-3.231711E-2,-2.7974516E-2,-3.7809353E-2,-3.313674E-2,-2.3708664E-2,-1.9826235E-2,-2.8711526E-2,-2.4760436E-2,-1.6771216E-2,-1.145293E-2,-2.0294948E-2,-1.6550796E-2,-7.7818185E-3,-3.4903244E-3,-1.2783212E-2,-8.45819E-3,-1.4918961E-3,3.1155334E-3,-4.8903488E-3,-1.595706E-3,6.5047853E-3,1.0984446E-2,1.9953887E-3,6.1937287E-3,1.4526059E-2,1.8618016E-2,1.05124945E-2,1.4540829E-2,2.3214526E-2,2.663253E-2,1.837696E-2,2.2236412E-2,2.9666064E-2,3.2855768E-2,2.611847E-2,2.9863099E-2,3.66298E-2,3.322302E-2,4.0244464E-2,3.691741E-2,4.483044E-2,4.124492E-2,5.033793E-2,4.5905914E-2,5.4846223E-2,5.0122708E-2,5.881538E-2,6.6694655E-2],"categories":[],"categories_nodes":[],"categories_segments":[],"categories_sizes":[],"default_left":[0,0,0,0,0,0,0,0,0,0,0,0,0,0,0,0,0,0,0,0,0,0,0,0,0,0,0,0,0,0,0,0,0,0,0,0,0,0,0,0,0,0,0,0,0,0,0,0,0,0,0,0,0,0,0,0,0,0,0,0,0,0,0,0,0,0,0,0,0,0,0,0,0,0,0,0,0,0,0,0,0,0,0,0,0,0,0,0,0,0,0,0,0,0,0,0,0,0,0,0,0,0,0,0,0,0,0,0,0,0,0,0,0,0,0,0,0,0,0,0,0],"id":7,"left_children":[1,3,5,7,9,11,13,15,17,19,21,23,25,27,29,31,33,35,37,39,41,43,45,47,49,51,53,55,57,59,61,-1,-1,-1,63,65,67,69,71,73,75,77,79,81,83,85,87,89,91,93,95,97,99,101,103,105,107,109,111,113,115,117,119,-1,-1,-1,-1,-1,-1,-1,-1,-1,-1,-1,-1,-1,-1,-1,-1,-1,-1,-1,-1,-1,-1,-1,-1,-1,-1,-1,-1,-1,-1,-1,-1,-1,-1,-1,-1,-1,-1,-1,-1,-1,-1,-1,-1,-1,-1,-1,-1,-1,-1,-1,-1,-1,-1,-1,-1,-1,-1],"loss_changes":[9.824042E3,1.2669663E3,1.2798828E3,1.9924756E2,1.9597827E2,1.7895258E2,1.9148291E2,2.5812988E1,3.6284668E1,2.7808105E1,2.3928513E1,1.9342392E1,2.4234863E1,2.489795E1,3.8984863E1,1.2706909E0,3.0726318E0,3.9117432E0,4.449707E0,3.342102E0,3.7203064E0,3.3226624E0,4.759205E0,3.724979E0,3.6824417E0,3.2846985E0,3.3436584E0,2.63385E0,3.2420654E0,4.265869E0,5.308716E0,0E0,0E0,0E0,1.23535156E-1,3.821411E-1,7.6379395E-1,1.1553345E0,1.3200073E0,5.525818E-1,2.2564697E0,8.6079407E-1,1.7278442E0,1.6167107E0,1.3753052E0,1.021101E0,2.2197113E0,9.60104E-1,1.076704E0,1.47155E0,1.9570265E0,1.0160294E0,2.040718E0,4.846344E-1,2.2026672E0,4.1635132E-1,1.5993958E0,8.954468E-1,9.417114E-1,7.849121E-1,1.0040894E0,7.635498E-2,7.0703125E-1,0E0,0E0,0E0,0E0,0E0,0E0,0E0,0E0,0E0,0E0,0E0,0E0,0E0,0E0,0E0,0E0,0E0,0E0,0E0,0E0,0E0,0E0,0E0,0E0,0E0,0E0,0E0,0E0,0E0,0E0,0E0,0E0,0E0,0E0,0E0,0E0,0E0,0E0,0E0,0E0,0E0,0E0,0E0,0E0,0E0,0E0,0E0,0E0,0E0,0E0,0E0,0E0,0E0,0E0,0E0,0E0,0E0,0E0],"parents":[2147483647,0,0,1,1,2,2,3,3,4,4,5,5,6,6,7,7,8,8,9,9,10,10,11,11,12,12,13,13,14,14,15,15,16,16,17,17,18,18,19,19,20,20,21,21,22,22,23,23,24,24,25,25,26,26,27,27,28,28,29,29,30,30,34,34,35,35,36,36,37,37,38,38,39,39,40,40,41,41,42,42,43,43,44,44,45,45,46,46,47,47,48,48,49,49,50,50,51,51,52,52,53,53,54,54,55,55,56,56,57,57,58,58,59,59,60,60,61,61,62,62],"right_children":[2,4,6,8,10,12,14,16,18,20,22,24,26,28,30,32,34,36,38,40,42,44,46,48,50,52,54,56,58,60,62,-1,-1,-1,64,66,68,70,72,74,76,78,80,82,84,86,88,90,92,94,96,98,100,102,104,106,108,110,112,114,116,118,120,-1,-1,-1,-1,-1,-1,-1,-1,-1,-1,-1,-1,-1,-1,-1,-1,-1,-1,-1,-1,-1,-1,-1,-1,-1,-1,-1,-1,-1,-1,-1,-1,-1,-1,-1,-1,-1,-1,-1,-1,-1,-1,-1,-1,-1,-1,-1,-1,-1,-1,-1,-1,-1,-1,-1,-1,-1,-1],"split_conditions":[-1.304461E-1,-1.0931591E0,7.387996E-1,-1.7380832E0,-5.8843577E-1,2.9950336E-1,1.168749E0,-2.1773794E0,-1.4016011E0,-8.314507E-1,-3.7346104E-1,6.583517E-2,5.144781E-1,9.4442755E-1,1.4678442E0,-2.4577813E0,-1.9343646E0,-1.5418019E0,-1.2333599E0,-7.0711607E-1,-3.660555E-1,-3.660555E-1,-3.660555E-1,-3.660555E-1,-3.660555E-1,-3.660555E-1,-7.0711607E-1,-3.660555E-1,1.0472416E0,1.2996032E0,1.6080452E0,-9.230302E-2,-8.023416E-2,-7.128234E-2,-9.999914E-1,-7.0711607E-1,-7.0711607E-1,-7.0711607E-1,-7.0711607E-1,-9.8099834E-1,-9.9034506E-1,-7.005965E-1,-7.1928996E-1,5.655567E-4,-4.669283E-1,5.655567E-4,-2.5195357E-1,-3.6548224E-1,-3.6978833E-2,1.6864917E-1,1.6864917E-1,3.9297062E-1,4.116641E-1,6.3598555E-1,6.172921E-1,8.229201E-1,8.509603E-1,-3.660555E-1,-3.660555E-1,-3.660555E-1,-7.0711607E-1,-3.660555E-1,1.8417134E0,-5.797555E-2,-6.532233E-2,-5.3134907E-2,-5.8320433E-2,-4.7049526E-2,-5.258701E-2,-4.2170927E-2,-4.731741E-2,-3.6580056E-2,-4.2024404E-2,-3.231711E-2,-2.7974516E-2,-3.7809353E-2,-3.313674E-2,-2.3708664E-2,-1.9826235E-2,-2.8711526E-2,-2.4760436E-2,-1.6771216E-2,-1.145293E-2,-2.0294948E-2,-1.6550796E-2,-7.7818185E-3,-3.4903244E-3,-1.2783212E-2,-8.45819E-3,-1.4918961E-3,3.1155334E-3,-4.8903488E-3,-1.595706E-3,6.5047853E-3,1.0984446E-2,1.9953887E-3,6.1937287E-3,1.4526059E-2,1.8618016E-2,1.05124945E-2,1.4540829E-2,2.3214526E-2,2.663253E-2,1.837696E-2,2.2236412E-2,2.9666064E-2,3.2855768E-2,2.611847E-2,2.9863099E-2,3.66298E-2,3.322302E-2,4.0244464E-2,3.691741E-2,4.483044E-2,4.124492E-2,5.033793E-2,4.5905914E-2,5.4846223E-2,5.0122708E-2,5.881538E-2,6.6694655E-2],"split_indices":[4,4,4,4,4,4,4,4,4,4,4,4,4,4,4,4,4,4,4,1,1,1,1,1,1,1,1,1,4,4,4,0,0,0,1,1,1,1,1,4,4,4,4,0,4,0,4,0,4,4,4,4,4,4,4,4,4,1,1,1,1,1,4,0,0,0,0,0,0,0,0,0,0,0,0,0,0,0,0,0,0,0,0,0,0,0,0,0,0,0,0,0,0,0,0,0,0,0,0,0,0,0,0,0,0,0,0,0,0,0,0,0,0,0,0,0,0,0,0,0,0],"split_type":[0,0,0,0,0,0,0,0,0,0,0,0,0,0,0,0,0,0,0,0,0,0,0,0,0,0,0,0,0,0,0,0,0,0,0,0,0,0,0,0,0,0,0,0,0,0,0,0,0,0,0,0,0,0,0,0,0,0,0,0,0,0,0,0,0,0,0,0,0,0,0,0,0,0,0,0,0,0,0,0,0,0,0,0,0,0,0,0,0,0,0,0,0,0,0,0,0,0,0,0,0,0,0,0,0,0,0,0,0,0,0,0,0,0,0,0,0,0,0,0,0],"sum_hessian":[2.7776E4,1.1912E4,1.5864E4,4.573E3,7.339E3,7.643E3,8.221E3,1.262E3,3.311E3,3.834E3,3.505E3,3.438E3,4.205E3,4.884E3,3.337E3,3.24E2,9.38E2,1.502E3,1.809E3,1.84E3,1.994E3,1.693E3,1.812E3,1.561E3,1.877E3,1.983E3,2.222E3,2.21E3,2.674E3,2.249E3,1.088E3,1.02E2,2.22E2,4.16E2,5.22E2,7.69E2,7.33E2,9.6E2,8.49E2,4.97E2,1.343E3,6.99E2,1.295E3,6E2,1.093E3,6.01E2,1.211E3,5.67E2,9.94E2,7.49E2,1.128E3,6.88E2,1.295E3,6.26E2,1.596E3,8.43E2,1.367E3,1.251E3,1.423E3,1.204E3,1.045E3,5.29E2,5.59E2,1E2,4.22E2,2.16E2,5.53E2,2.03E2,5.3E2,2.57E2,7.03E2,2.27E2,6.22E2,2.01E2,2.96E2,4.99E2,8.44E2,3.71E2,3.28E2,5.93E2,7.02E2,2.79E2,3.21E2,6.1E2,4.83E2,2.2E2,3.81E2,5.77E2,6.34E2,1.55E2,4.12E2,4.89E2,5.05E2,3.55E2,3.94E2,4.98E2,6.3E2,2.93E2,3.95E2,6.35E2,6.6E2,3.29E2,2.97E2,7.45E2,8.51E2,3.27E2,5.16E2,7.32E2,6.35E2,4.77E2,7.74E2,5.86E2,8.37E2,5.14E2,6.9E2,3.82E2,6.63E2,2.73E2,2.56E2,4.52E2,1.07E2],"tree_param":{"num_deleted":"0","num_feature":"16","num_nodes":"121","size_leaf_vector":"1"}},{"base_weights":[-1.5272078E-3,-6.407396E-1,5.015495E-1,-1.0193135E0,-3.7902892E-1,2.2283143E-1,7.510109E-1,-1.29885E0,-8.7123305E-1,-5.277568E-1,-2.2311333E-1,6.199793E-2,3.4528643E-1,6.475184E-1,9.5621353E-1,-1.5209916E0,-1.1948617E0,-9.627608E-1,-7.7527076E-1,-6.066264E-1,-4.4877255E-1,-3.049227E-1,-1.4768101E-1,-6.6555436E-3,1.2609252E-1,2.5768366E-1,4.0386602E-1,5.5911833E-1,7.138945E-1,8.99502E-1,1.1357112E0,-8.386605E-2,-7.081372E-2,-1.2570734E0,-5.6121316E-2,-1.0152322E0,-9.122817E-1,-7.022912E-1,-8.013228E-1,-6.47526E-1,-5.627773E-1,-3.8950804E-1,-4.8075104E-1,-2.3691875E-1,-3.305013E-1,-7.953593E-2,-1.8064347E-1,5.353298E-2,-4.317808E-2,1.7941442E-1,8.93555E-2,3.092489E-1,2.2962205E-1,3.6022124E-1,4.438344E-1,6.0614264E-1,5.3104764E-1,6.7006147E-1,7.5960106E-1,8.582645E-1,9.717326E-1,1.1031303E0,6.387951E-2,-5.7912625E-2,-6.456497E-2,-4.568933E-2,-5.175478E-2,-4.1707687E-2,-4.6867553E-2,-3.6985915E-2,-3.2928925E-2,-4.1863516E-2,-3.7442964E-2,-2.9568264E-2,-3.3931274E-2,-2.4930885E-2,-2.9695956E-2,-2.0941732E-2,-1.6230568E-2,-2.5700832E-2,-2.1935329E-2,-1.4545145E-2,-9.670141E-3,-1.7800601E-2,-1.3958651E-2,-5.299591E-3,-1.524595E-3,-1.0791427E-2,-6.4486726E-3,2.7074103E-4,3.8882736E-3,-4.041529E-3,-6.579471E-4,6.6276537E-3,1.0543587E-2,2.795577E-3,6.076896E-3,1.3635111E-2,1.6949164E-2,9.596248E-3,1.2898284E-2,2.0598028E-2,1.6606739E-2,2.456272E-2,2.070251E-2,2.8806655E-2,3.235431E-2,2.4696417E-2,2.840503E-2,3.5327137E-2,3.2306924E-2,4.030832E-2,3.6812928E-2,4.5488793E-2,4.1549478E-2,5.0612807E-2,4.6480794E-2,5.531777E-2,2.6838753E-2],"categories":[],"categories_nodes":[],"categories_segments":[],"categories_sizes":[],"default_left":[0,0,0,0,0,0,0,0,0,0,0,0,0,0,0,0,0,0,0,0,0,0,0,0,0,0,0,0,0,0,0,0,0,0,0,0,0,0,0,0,0,0,0,0,0,0,0,0,0,0,0,0,0,0,0,0,0,0,0,0,0,0,0,0,0,0,0,0,0,0,0,0,0,0,0,0,0,0,0,0,0,0,0,0,0,0,0,0,0,0,0,0,0,0,0,0,0,0,0,0,0,0,0,0,0,0,0,0,0,0,0,0,0,0,0,0,0,0,0],"id":8,"left_children":[1,3,5,7,9,11,13,15,17,19,21,23,25,27,29,31,33,35,37,39,41,43,45,47,49,51,53,55,57,59,61,-1,-1,63,-1,65,67,69,71,73,75,77,79,81,83,85,87,89,91,93,95,97,99,101,103,105,107,109,111,113,115,117,-1,-1,-1,-1,-1,-1,-1,-1,-1,-1,-1,-1,-1,-1,-1,-1,-1,-1,-1,-1,-1,-1,-1,-1,-1,-1,-1,-1,-1,-1,-1,-1,-1,-1,-1,-1,-1,-1,-1,-1,-1,-1,-1,-1,-1,-1,-1,-1,-1,-1,-1,-1,-1,-1,-1,-1,-1],"loss_changes":[8.920432E3,1.2100352E3,1.0791377E3,2.0554834E2,1.6742285E2,1.4440103E2,1.7333252E2,3.8076416E1,2.7948242E1,2.2758057E1,2.1732681E1,1.3954242E1,2.1259369E1,3.1567871E1,2.6911133E1,6.5789795E0,3.9110107E0,3.4919434E0,2.479248E0,2.947998E0,3.3207397E0,2.8648376E0,4.114197E0,3.3700116E0,3.1965446E0,2.346939E0,4.1889343E0,2.7682495E0,5.7177734E0,5.3913574E0,1.6184692E0,0E0,0E0,6.25E-1,0E0,6.843262E-1,9.025879E-1,2.1469116E-1,1.583313E0,1.2561646E0,1.5000916E0,1.1087341E0,1.4500427E0,1.038454E0,1.5072784E0,7.765677E-1,2.222866E0,6.74706E-1,1.0772382E0,9.5676994E-1,1.040452E0,5.443611E-1,1.1108513E0,1.6026154E0,1.6284332E0,6.9366455E-1,1.7466736E0,9.3548584E-1,1.052124E0,1.1251831E0,3.4240723E-1,3.9245605E-1,0E0,0E0,0E0,0E0,0E0,0E0,0E0,0E0,0E0,0E0,0E0,0E0,0E0,0E0,0E0,0E0,0E0,0E0,0E0,0E0,0E0,0E0,0E0,0E0,0E0,0E0,0E0,0E0,0E0,0E0,0E0,0E0,0E0,0E0,0E0,0E0,0E0,0E0,0E0,0E0,0E0,0E0,0E0,0E0,0E0,0E0,0E0,0E0,0E0,0E0,0E0,0E0,0E0,0E0,0E0,0E0,0E0],"parents":[2147483647,0,0,1,1,2,2,3,3,4,4,5,5,6,6,7,7,8,8,9,9,10,10,11,11,12,12,13,13,14,14,15,15,16,16,17,17,18,18,19,19,20,20,21,21,22,22,23,23,24,24,25,25,26,26,27,27,28,28,29,29,30,30,33,33,35,35,36,36,37,37,38,38,39,39,40,40,41,41,42,42,43,43,44,44,45,45,46,46,47,47,48,48,49,49,50,50,51,51,52,52,53,53,54,54,55,55,56,56,57,57,58,58,59,59,60,60,61,61],"right_children":[2,4,6,8,10,12,14,16,18,20,22,24,26,28,30,32,34,36,38,40,42,44,46,48,50,52,54,56,58,60,62,-1,-1,64,-1,66,68,70,72,74,76,78,80,82,84,86,88,90,92,94,96,98,100,102,104,106,108,110,112,114,116,118,-1,-1,-1,-1,-1,-1,-1,-1,-1,-1,-1,-1,-1,-1,-1,-1,-1,-1,-1,-1,-1,-1,-1,-1,-1,-1,-1,-1,-1,-1,-1,-1,-1,-1,-1,-1,-1,-1,-1,-1,-1,-1,-1,-1,-1,-1,-1,-1,-1,-1,-1,-1,-1,-1,-1,-1,-1],"split_conditions":[-1.0240593E-1,-1.0370787E0,7.387996E-1,-1.6165758E0,-5.603956E-1,2.9950336E-1,1.2248294E0,-2.0371785E0,-1.298787E0,-7.84717E-1,-3.4542084E-1,9.3875356E-2,4.8643792E-1,9.537743E-1,1.5706583E0,-2.298887E0,-1.7754701E0,-1.4483347E0,-7.0711607E-1,-9.062245E-1,-3.660555E-1,-7.0711607E-1,-3.660555E-1,-3.660555E-1,-3.660555E-1,-3.660555E-1,6.079454E-1,-3.660555E-1,1.0846285E0,1.4024172E0,1.8417134E0,-8.386605E-2,-7.081372E-2,-7.0711607E-1,-5.6121316E-2,-9.999914E-1,-7.0711607E-1,-1.1585861E0,-1.1398927E0,-3.660555E-1,-3.660555E-1,6.367743E-1,-6.6320956E-1,1.082914E-1,-4.2019466E-1,-1.7717974E-1,-1.958732E-1,-2.550406E-1,-1.8285377E-2,1.6864917E-1,1.9668935E-1,3.836239E-1,3.836239E-1,-3.660555E-1,-3.660555E-1,8.6965376E-1,8.509603E-1,-3.660555E-1,-7.0711607E-1,-7.0711607E-1,-3.660555E-1,6.2459105E-1,6.387951E-2,-5.7912625E-2,-6.456497E-2,-4.568933E-2,-5.175478E-2,-4.1707687E-2,-4.6867553E-2,-3.6985915E-2,-3.2928925E-2,-4.1863516E-2,-3.7442964E-2,-2.9568264E-2,-3.3931274E-2,-2.4930885E-2,-2.9695956E-2,-2.0941732E-2,-1.6230568E-2,-2.5700832E-2,-2.1935329E-2,-1.4545145E-2,-9.670141E-3,-1.7800601E-2,-1.3958651E-2,-5.299591E-3,-1.524595E-3,-1.0791427E-2,-6.4486726E-3,2.7074103E-4,3.8882736E-3,-4.041529E-3,-6.579471E-4,6.6276537E-3,1.0543587E-2,2.795577E-3,6.076896E-3,1.3635111E-2,1.6949164E-2,9.596248E-3,1.2898284E-2,2.0598028E-2,1.6606739E-2,2.456272E-2,2.070251E-2,2.8806655E-2,3.235431E-2,2.4696417E-2,2.840503E-2,3.5327137E-2,3.2306924E-2,4.030832E-2,3.6812928E-2,4.5488793E-2,4.1549478E-2,5.0612807E-2,4.6480794E-2,5.531777E-2,2.6838753E-2],"split_indices":[4,4,4,4,4,4,4,4,4,4,4,4,4,4,4,4,4,4,1,4,1,1,1,1,1,1,4,1,4,4,4,0,0,1,0,1,1,4,4,1,1,13,4,13,4,4,4,13,4,4,4,4,4,1,1,4,4,1,1,1,1,14,0,0,0,0,0,0,0,0,0,0,0,0,0,0,0,0,0,0,0,0,0,0,0,0,0,0,0,0,0,0,0,0,0,0,0,0,0,0,0,0,0,0,0,0,0,0,0,0,0,0,0,0,0,0,0,0,0],"split_type":[0,0,0,0,0,0,0,0,0,0,0,0,0,0,0,0,0,0,0,0,0,0,0,0,0,0,0,0,0,0,0,0,0,0,0,0,0,0,0,0,0,0,0,0,0,0,0,0,0,0,0,0,0,0,0,0,0,0,0,0,0,0,0,0,0,0,0,0,0,0,0,0,0,0,0,0,0,0,0,0,0,0,0,0,0,0,0,0,0,0,0,0,0,0,0,0,0,0,0,0,0,0,0,0,0,0,0,0,0,0,0,0,0,0,0,0,0,0,0],"sum_hessian":[2.7738E4,1.2216E4,1.5522E4,4.992E3,7.224E3,7.332E3,8.19E3,1.726E3,3.266E3,3.696E3,3.528E3,3.17E3,4.162E3,5.447E3,2.743E3,5.46E2,1.18E3,1.667E3,1.599E3,1.846E3,1.85E3,1.691E3,1.837E3,1.531E3,1.639E3,1.67E3,2.492E3,2.34E3,3.107E3,2.089E3,6.54E2,2.13E2,3.33E2,6.26E2,5.54E2,8.08E2,8.59E2,4.28E2,1.171E3,9.48E2,8.98E2,6.53E2,1.197E3,4.65E2,1.226E3,6E2,1.237E3,5.78E2,9.53E2,6.67E2,9.72E2,5.85E2,1.085E3,1.196E3,1.296E3,8.67E2,1.473E3,1.594E3,1.513E3,1.338E3,7.51E2,5.39E2,1.15E2,1.7E2,4.56E2,1.4E2,6.68E2,2.17E2,6.42E2,2.22E2,2.06E2,6.86E2,4.85E2,3.45E2,6.03E2,2.99E2,5.99E2,4.46E2,2.07E2,6.62E2,5.35E2,2.05E2,2.6E2,8.15E2,4.11E2,3.89E2,2.11E2,7.34E2,5.03E2,1.94E2,3.84E2,4.22E2,5.31E2,2.7E2,3.97E2,4.78E2,4.94E2,2.67E2,3.18E2,4.69E2,6.16E2,4.16E2,7.8E2,4.94E2,8.02E2,5.09E2,3.58E2,7.43E2,7.3E2,6.2E2,9.74E2,4.94E2,1.019E3,4.52E2,8.86E2,3.71E2,3.8E2,5.35E2,4E0],"tree_param":{"num_deleted":"0","num_feature":"16","num_nodes":"119","size_leaf_vector":"1"}},{"base_weights":[2.8494613E-3,-6.0076374E-1,4.8452637E-1,-9.5954627E-1,-3.498006E-1,2.252252E-1,7.206036E-1,-1.2175105E0,-8.131975E-1,-4.8518515E-1,-1.9289067E-1,8.8935256E-2,3.5653934E-1,6.2834567E-1,9.2183095E-1,-1.4506592E0,-1.1239269E0,-8.9787364E-1,-7.259459E-1,-5.6434786E-1,-4.0990406E-1,-2.6721632E-1,-1.2220813E-1,2.0191515E-2,1.6694136E-1,2.9698348E-1,4.1654342E-1,5.540411E-1,7.0199585E-1,8.5876244E-1,1.058536E0,-7.982962E-2,-6.718667E-2,-1.1927022E0,-1.0579573E0,-9.449674E-1,-8.540147E-1,-6.6997236E-1,-7.5591207E-1,-6.036299E-1,-5.2129453E-1,-3.4562734E-1,-4.3374768E-1,-2.093911E-1,-2.9838622E-1,-4.7465324E-2,-1.4949518E-1,7.559226E-2,-1.4644908E-2,2.1623026E-1,1.3592787E-1,3.4945807E-1,2.6868656E-1,4.629716E-1,3.8836882E-1,5.1696855E-1,5.975384E-1,6.617716E-1,7.38937E-1,8.2690924E-1,9.144055E-1,1.0165969E0,5.8185972E-2,-5.47395E-2,-6.136793E-2,-4.924746E-2,-5.4280084E-2,-4.3394875E-2,-4.849355E-2,-3.910401E-2,-4.3925032E-2,-3.518969E-2,-3.1514373E-2,-3.932658E-2,-3.521281E-2,-2.690172E-2,-3.1449538E-2,-2.2999935E-2,-2.7534295E-2,-1.8240467E-2,-1.2162379E-2,-2.348211E-2,-1.951017E-2,-1.4105076E-2,-8.657621E-3,-1.623751E-2,-1.2798271E-2,-3.6714256E-3,4.05744E-4,-9.195521E-3,-5.3523546E-3,8.459897E-4,5.262593E-3,-2.5135372E-3,1.337482E-3,8.307223E-3,1.2272959E-2,4.893379E-3,8.583551E-3,1.3805859E-2,1.8441081E-2,1.1602032E-2,1.48201985E-2,2.0370996E-2,2.4294069E-2,1.8153286E-2,2.1013314E-2,2.8127888E-2,2.442201E-2,3.2491993E-2,2.8754095E-2,3.4557413E-2,3.1648513E-2,3.8778257E-2,3.564324E-2,4.36474E-2,3.998506E-2,4.772102E-2,4.375715E-2,5.285821E-2,4.8098586E-2],"categories":[],"categories_nodes":[],"categories_segments":[],"categories_sizes":[],"default_left":[0,0,0,0,0,0,0,0,0,0,0,0,0,0,0,0,0,0,0,0,0,0,0,0,0,0,0,0,0,0,0,0,0,0,0,0,0,0,0,0,0,0,0,0,0,0,0,0,0,0,0,0,0,0,0,0,0,0,0,0,0,0,0,0,0,0,0,0,0,0,0,0,0,0,0,0,0,0,0,0,0,0,0,0,0,0,0,0,0,0,0,0,0,0,0,0,0,0,0,0,0,0,0,0,0,0,0,0,0,0,0,0,0,0,0,0,0,0,0,0,0],"id":9,"left_children":[1,3,5,7,9,11,13,15,17,19,21,23,25,27,29,31,33,35,37,39,41,43,45,47,49,51,53,55,57,59,61,-1,-1,63,65,67,69,71,73,75,77,79,81,83,85,87,89,91,93,95,97,99,101,103,105,107,109,111,113,115,117,119,-1,-1,-1,-1,-1,-1,-1,-1,-1,-1,-1,-1,-1,-1,-1,-1,-1,-1,-1,-1,-1,-1,-1,-1,-1,-1,-1,-1,-1,-1,-1,-1,-1,-1,-1,-1,-1,-1,-1,-1,-1,-1,-1,-1,-1,-1,-1,-1,-1,-1,-1,-1,-1,-1,-1,-1,-1,-1,-1],"loss_changes":[8.0609487E3,1.1076211E3,9.437742E2,1.9018994E2,1.5374957E2,1.3150977E2,1.4925732E2,3.8319824E1,2.324121E1,2.2933044E1,1.7598175E1,1.934428E1,1.3252228E1,2.9912598E1,2.0947266E1,5.984253E0,4.6862793E0,2.5740967E0,2.1739502E0,2.8851318E0,2.9091187E0,2.8844604E0,3.504942E0,3.7047071E0,2.553978E0,2.7006378E0,2.2558594E0,4.1433716E0,3.637329E0,2.3277588E0,2.328308E0,0E0,0E0,8.076172E-1,2.991333E-1,6.553345E-1,8.242798E-1,3.1610107E-1,1.079956E0,1.296875E0,1.3861084E0,9.8155975E-1,2.0862427E0,1.468874E0,1.1023483E0,6.672801E-1,1.8224583E0,1.2877088E0,1.7400342E0,9.122524E-1,1.3980083E0,8.297653E-1,1.1775208E0,6.9036865E-1,7.8767395E-1,1.6734924E0,1.1109009E0,6.954956E-1,8.213501E-1,7.0111084E-1,1.451416E-1,2.6171875E-1,0E0,0E0,0E0,0E0,0E0,0E0,0E0,0E0,0E0,0E0,0E0,0E0,0E0,0E0,0E0,0E0,0E0,0E0,0E0,0E0,0E0,0E0,0E0,0E0,0E0,0E0,0E0,0E0,0E0,0E0,0E0,0E0,0E0,0E0,0E0,0E0,0E0,0E0,0E0,0E0,0E0,0E0,0E0,0E0,0E0,0E0,0E0,0E0,0E0,0E0,0E0,0E0,0E0,0E0,0E0,0E0,0E0,0E0,0E0],"parents":[2147483647,0,0,1,1,2,2,3,3,4,4,5,5,6,6,7,7,8,8,9,9,10,10,11,11,12,12,13,13,14,14,15,15,16,16,17,17,18,18,19,19,20,20,21,21,22,22,23,23,24,24,25,25,26,26,27,27,28,28,29,29,30,30,33,33,34,34,35,35,36,36,37,37,38,38,39,39,40,40,41,41,42,42,43,43,44,44,45,45,46,46,47,47,48,48,49,49,50,50,51,51,52,52,53,53,54,54,55,55,56,56,57,57,58,58,59,59,60,60,61,61],"right_children":[2,4,6,8,10,12,14,16,18,20,22,24,26,28,30,32,34,36,38,40,42,44,46,48,50,52,54,56,58,60,62,-1,-1,64,66,68,70,72,74,76,78,80,82,84,86,88,90,92,94,96,98,100,102,104,106,108,110,112,114,116,118,120,-1,-1,-1,-1,-1,-1,-1,-1,-1,-1,-1,-1,-1,-1,-1,-1,-1,-1,-1,-1,-1,-1,-1,-1,-1,-1,-1,-1,-1,-1,-1,-1,-1,-1,-1,-1,-1,-1,-1,-1,-1,-1,-1,-1,-1,-1,-1,-1,-1,-1,-1,-1,-1,-1,-1,-1,-1,-1,-1],"split_conditions":[-8.371247E-2,-1.0277319E0,7.57493E-1,-1.5885355E0,-5.2300864E-1,3.7427717E-1,1.2528696E0,-2.0371785E0,-1.2800936E0,-7.660236E-1,-3.0803394E-1,1.5930244E-1,5.705584E-1,1.000508E0,1.5332714E0,-2.298887E0,-1.7754701E0,-1.4296412E0,-3.660555E-1,-8.8753104E-1,-7.0711607E-1,-3.660555E-1,-7.0711607E-1,-3.660555E-1,-3.660555E-1,-3.660555E-1,-3.660555E-1,8.9769393E-1,1.1126686E0,1.4024172E0,1.7575928E0,-7.982962E-2,-6.718667E-2,-7.0711607E-1,-7.0711607E-1,-7.0711607E-1,-7.0711607E-1,-1.1398927E0,-1.1211993E0,-7.0711607E-1,-3.660555E-1,1.0991968E0,-6.351694E-1,-3.6548224E-1,-4.015012E-1,-1.4913957E-1,-1.7717974E-1,-3.6548224E-1,4.7141716E-2,-3.6548224E-1,2.714632E-1,-7.0658445E-1,4.6774447E-1,-3.6548224E-1,6.7337245E-1,-3.660555E-1,-7.0711607E-1,-5.239147E-5,-3.660555E-1,-7.0711607E-1,-3.660555E-1,-3.660555E-1,5.8185972E-2,-5.47395E-2,-6.136793E-2,-4.924746E-2,-5.4280084E-2,-4.3394875E-2,-4.849355E-2,-3.910401E-2,-4.3925032E-2,-3.518969E-2,-3.1514373E-2,-3.932658E-2,-3.521281E-2,-2.690172E-2,-3.1449538E-2,-2.2999935E-2,-2.7534295E-2,-1.8240467E-2,-1.2162379E-2,-2.348211E-2,-1.951017E-2,-1.4105076E-2,-8.657621E-3,-1.623751E-2,-1.2798271E-2,-3.6714256E-3,4.05744E-4,-9.195521E-3,-5.3523546E-3,8.459897E-4,5.262593E-3,-2.5135372E-3,1.337482E-3,8.307223E-3,1.2272959E-2,4.893379E-3,8.583551E-3,1.3805859E-2,1.8441081E-2,1.1602032E-2,1.48201985E-2,2.0370996E-2,2.4294069E-2,1.8153286E-2,2.1013314E-2,2.8127888E-2,2.442201E-2,3.2491993E-2,2.8754095E-2,3.4557413E-2,3.1648513E-2,3.8778257E-2,3.564324E-2,4.36474E-2,3.998506E-2,4.772102E-2,4.375715E-2,5.285821E-2,4.8098586E-2],"split_indices":[4,4,4,4,4,4,4,4,4,4,4,4,4,4,4,4,4,4,1,4,1,1,1,1,1,1,1,4,4,4,4,0,0,1,1,1,1,4,4,1,1,13,4,0,4,4,4,0,4,0,4,0,4,0,4,1,1,1,1,1,1,1,0,0,0,0,0,0,0,0,0,0,0,0,0,0,0,0,0,0,0,0,0,0,0,0,0,0,0,0,0,0,0,0,0,0,0,0,0,0,0,0,0,0,0,0,0,0,0,0,0,0,0,0,0,0,0,0,0,0,0],"split_type":[0,0,0,0,0,0,0,0,0,0,0,0,0,0,0,0,0,0,0,0,0,0,0,0,0,0,0,0,0,0,0,0,0,0,0,0,0,0,0,0,0,0,0,0,0,0,0,0,0,0,0,0,0,0,0,0,0,0,0,0,0,0,0,0,0,0,0,0,0,0,0,0,0,0,0,0,0,0,0,0,0,0,0,0,0,0,0,0,0,0,0,0,0,0,0,0,0,0,0,0,0,0,0,0,0,0,0,0,0,0,0,0,0,0,0,0,0,0,0,0,0],"sum_hessian":[2.7723E4,1.2304E4,1.5419E4,5.063E3,7.241E3,7.349E3,8.07E3,1.83E3,3.233E3,3.886E3,3.355E3,3.607E3,3.742E3,5.536E3,2.534E3,5.2E2,1.31E3,1.636E3,1.597E3,1.891E3,1.995E3,1.634E3,1.721E3,1.918E3,1.689E3,1.881E3,1.861E3,2.76E3,2.776E3,1.739E3,7.95E2,2.14E2,3.06E2,6.33E2,6.77E2,7.79E2,8.57E2,5.65E2,1.032E3,9.82E2,9.09E2,5.44E2,1.451E3,5.75E2,1.059E3,4.61E2,1.26E3,7.4E2,1.178E3,6.5E2,1.039E3,6.55E2,1.226E3,6.97E2,1.164E3,1.497E3,1.263E3,1.338E3,1.438E3,1.116E3,6.23E2,5.76E2,2.19E2,1.74E2,4.59E2,1.96E2,4.81E2,1.99E2,5.8E2,2.26E2,6.31E2,2.96E2,2.69E2,6.39E2,3.93E2,2.8E2,7.02E2,3E2,6.09E2,4.56E2,8.8E1,7.9E2,6.61E2,1.89E2,3.86E2,6.49E2,4.1E2,3.14E2,1.47E2,6.94E2,5.66E2,2.49E2,4.91E2,6.33E2,5.45E2,2.42E2,4.08E2,5.05E2,5.34E2,1.4E2,5.15E2,5.32E2,6.94E2,2.09E2,4.88E2,6.56E2,5.08E2,5.69E2,9.28E2,3.71E2,8.92E2,6.51E2,6.87E2,5.86E2,8.52E2,4.03E2,7.13E2,2.97E2,3.26E2,3.2E2,2.56E2],"tree_param":{"num_deleted":"0","num_feature":"16","num_nodes":"121","size_leaf_vector":"1"}},{"base_weights":[-8.2140946E-4,-5.814676E-1,4.3996173E-1,-9.035782E-1,-3.439595E-1,1.776836E-1,6.588325E-1,-1.1903353E0,-7.853488E-1,-4.6941498E-1,-2.0686936E-1,3.73512E-2,2.9115328E-1,5.490122E-1,8.104993E-1,-1.4388918E0,-1.1192414E0,-8.8090444E-1,-6.957991E-1,-5.376153E-1,-4.0234753E-1,-2.716854E-1,-1.3864912E-1,-2.348534E-2,1.1343478E-1,2.0858711E-1,3.5150445E-1,4.7789344E-1,6.062399E-1,7.515972E-1,9.485917E-1,-7.8737706E-2,-6.815206E-2,-5.933496E-2,-5.2830387E-2,-9.377757E-1,-8.3717334E-1,-7.446225E-1,-6.6289014E-1,-5.7453394E-1,-4.936757E-1,-4.4166592E-1,-3.4851542E-1,-3.1569394E-1,-2.0206635E-1,-1.8303034E-1,-7.496044E-2,-6.268888E-2,2.0413246E-2,5.5215377E-2,1.6280027E-1,1.6923782E-1,2.621121E-1,3.0654895E-1,3.922157E-1,4.2992997E-1,5.1813E-1,5.548396E-1,6.390896E-1,7.062329E-1,8.0229473E-1,8.8277525E-1,1.0282292E0,-4.3831166E-2,-4.8094705E-2,-3.936292E-2,-4.3164067E-2,-3.4900572E-2,-3.9093405E-2,-3.7318002E-2,-3.222335E-2,-2.9202217E-2,-2.2981366E-2,-2.6446057E-2,-2.086437E-2,-2.5879223E-2,-2.1452112E-2,-1.8715337E-2,-1.1689779E-2,-1.6119447E-2,-9.309798E-3,-1.3018496E-2,-7.0108073E-3,-9.642773E-3,-2.128671E-3,-6.446344E-4,-7.5621726E-3,1.8501024E-3,-3.9799022E-3,-1.6977492E-3,2.3042883E-3,-4.3848354E-6,5.594423E-3,9.536043E-3,4.1206283E-3,4.7676894E-3,9.842406E-3,1.0189726E-2,1.4419287E-2,1.1350749E-2,1.6263535E-2,2.1533778E-2,1.7513832E-2,1.897432E-2,2.2718672E-2,2.8113479E-2,2.4464956E-2,2.4799258E-2,2.8734777E-2,2.9410813E-2,3.2830022E-2,3.3923868E-2,3.6921363E-2,3.7726726E-2,4.154429E-2,4.259534E-2,4.6587106E-2,5.308267E-2,4.4795386E-2],"categories":[],"categories_nodes":[],"categories_segments":[],"categories_sizes":[],"default_left":[0,0,0,0,0,0,0,0,0,0,0,0,0,0,0,0,0,0,0,0,0,0,0,0,0,0,0,0,0,0,0,0,0,0,0,0,0,0,0,0,0,0,0,0,0,0,0,0,0,0,0,0,0,0,0,0,0,0,0,0,0,0,0,0,0,0,0,0,0,0,0,0,0,0,0,0,0,0,0,0,0,0,0,0,0,0,0,0,0,0,0,0,0,0,0,0,0,0,0,0,0,0,0,0,0,0,0,0,0,0,0,0,0,0,0,0,0,0,0],"id":10,"left_children":[1,3,5,7,9,11,13,15,17,19,21,23,25,27,29,31,33,35,37,39,41,43,45,47,49,51,53,55,57,59,61,-1,-1,-1,-1,63,65,67,69,71,73,75,77,79,81,83,85,87,89,91,93,95,97,99,101,103,105,107,109,111,113,115,117,-1,-1,-1,-1,-1,-1,-1,-1,-1,-1,-1,-1,-1,-1,-1,-1,-1,-1,-1,-1,-1,-1,-1,-1,-1,-1,-1,-1,-1,-1,-1,-1,-1,-1,-1,-1,-1,-1,-1,-1,-1,-1,-1,-1,-1,-1,-1,-1,-1,-1,-1,-1,-1,-1,-1,-1],"loss_changes":[7.080299E3,9.1299243E2,9.0263403E2,1.7081885E2,1.1810956E2,1.1392157E2,1.4233081E2,2.4489258E1,3.010669E1,1.6195312E1,1.4492264E1,1.48143835E1,1.9639282E1,1.9958374E1,2.8552979E1,1.2027588E0,3.6176758E0,3.5249023E0,2.4916382E0,2.597351E0,3.6834412E0,5.095703E0,4.517288E0,3.062903E0,4.077881E0,3.4792633E0,4.0599365E0,4.067383E0,4.2938232E0,5.244995E0,4.7110596E0,0E0,0E0,0E0,0E0,2.5561523E-1,6.092529E-1,7.389221E-1,1.2397766E0,7.7957153E-1,1.9816284E0,7.7848816E-1,2.1907501E0,8.329773E-1,2.3254776E0,1.2945175E0,3.122962E0,1.5874944E0,1.1740111E0,2.0497732E0,1.7102795E0,1.9538708E0,1.0245056E0,1.5491867E0,1.7766418E0,1.0852661E0,1.2570801E0,9.7824097E-1,1.104126E0,6.9818115E-1,9.925537E-1,1.04156494E-1,1.1673584E0,0E0,0E0,0E0,0E0,0E0,0E0,0E0,0E0,0E0,0E0,0E0,0E0,0E0,0E0,0E0,0E0,0E0,0E0,0E0,0E0,0E0,0E0,0E0,0E0,0E0,0E0,0E0,0E0,0E0,0E0,0E0,0E0,0E0,0E0,0E0,0E0,0E0,0E0,0E0,0E0,0E0,0E0,0E0,0E0,0E0,0E0,0E0,0E0,0E0,0E0,0E0,0E0,0E0,0E0,0E0,0E0],"parents":[2147483647,0,0,1,1,2,2,3,3,4,4,5,5,6,6,7,7,8,8,9,9,10,10,11,11,12,12,13,13,14,14,15,15,16,16,17,17,18,18,19,19,20,20,21,21,22,22,23,23,24,24,25,25,26,26,27,27,28,28,29,29,30,30,35,35,36,36,37,37,38,38,39,39,40,40,41,41,42,42,43,43,44,44,45,45,46,46,47,47,48,48,49,49,50,50,51,51,52,52,53,53,54,54,55,55,56,56,57,57,58,58,59,59,60,60,61,61,62,62],"right_children":[2,4,6,8,10,12,14,16,18,20,22,24,26,28,30,32,34,36,38,40,42,44,46,48,50,52,54,56,58,60,62,-1,-1,-1,-1,64,66,68,70,72,74,76,78,80,82,84,86,88,90,92,94,96,98,100,102,104,106,108,110,112,114,116,118,-1,-1,-1,-1,-1,-1,-1,-1,-1,-1,-1,-1,-1,-1,-1,-1,-1,-1,-1,-1,-1,-1,-1,-1,-1,-1,-1,-1,-1,-1,-1,-1,-1,-1,-1,-1,-1,-1,-1,-1,-1,-1,-1,-1,-1,-1,-1,-1,-1,-1,-1,-1,-1,-1,-1,-1],"split_conditions":[-1.3050732E-1,-1.0278863E0,6.9209003E-1,-1.6728774E0,-5.605014E-1,2.7144367E-1,1.1407795E0,-2.177653E0,-1.3176649E0,-7.848461E-1,-3.4550437E-1,9.466332E-2,4.3074137E-1,9.070871E-1,1.4679489E0,-2.458084E0,-1.8878745E0,-1.4952712E0,-1.1961448E0,-8.8556427E-1,-6.3350576E-1,-3.907827E-1,-1.9473721E-1,3.7751228E-2,-1.8898022E-1,4.4904992E-1,5.425269E-1,7.854904E-1,9.441939E-1,1.2149234E0,1.5323305E0,-7.8737706E-2,-6.815206E-2,-5.933496E-2,-5.2830387E-2,-1.5705125E0,-1.3741646E0,-1.1778166E0,-9.9949557E-1,1.3538548E0,5.046536E-1,-1.2242543E0,1.1322271E0,2.150368E0,2.734423E-1,1.9379443E0,-1.4932713E-1,-2.0542115E-1,-9.9949557E-1,1.0318511E-1,4.1497037E-1,-9.9949557E-1,-9.9949557E-1,-7.0658445E-1,6.8281436E-1,-7.0658445E-1,7.5761354E-1,-9.9949557E-1,-7.0658445E-1,1.2529519E0,1.2716473E0,1.6081644E0,-5.6676112E-2,-4.3831166E-2,-4.8094705E-2,-3.936292E-2,-4.3164067E-2,-3.4900572E-2,-3.9093405E-2,-3.7318002E-2,-3.222335E-2,-2.9202217E-2,-2.2981366E-2,-2.6446057E-2,-2.086437E-2,-2.5879223E-2,-2.1452112E-2,-1.8715337E-2,-1.1689779E-2,-1.6119447E-2,-9.309798E-3,-1.3018496E-2,-7.0108073E-3,-9.642773E-3,-2.128671E-3,-6.446344E-4,-7.5621726E-3,1.8501024E-3,-3.9799022E-3,-1.6977492E-3,2.3042883E-3,-4.3848354E-6,5.594423E-3,9.536043E-3,4.1206283E-3,4.7676894E-3,9.842406E-3,1.0189726E-2,1.4419287E-2,1.1350749E-2,1.6263535E-2,2.1533778E-2,1.7513832E-2,1.897432E-2,2.2718672E-2,2.8113479E-2,2.4464956E-2,2.4799258E-2,2.8734777E-2,2.9410813E-2,3.2830022E-2,3.3923868E-2,3.6921363E-2,3.7726726E-2,4.154429E-2,4.259534E-2,4.6587106E-2,5.308267E-2,4.4795386E-2],"split_indices":[5,5,5,5,5,5,5,5,5,5,5,9,9,5,5,5,5,5,5,9,9,9,9,5,13,5,5,9,9,9,9,0,0,0,0,7,7,7,0,11,13,0,13,11,13,11,7,10,0,5,14,0,0,0,7,0,7,0,0,5,5,5,14,0,0,0,0,0,0,0,0,0,0,0,0,0,0,0,0,0,0,0,0,0,0,0,0,0,0,0,0,0,0,0,0,0,0,0,0,0,0,0,0,0,0,0,0,0,0,0,0,0,0,0,0,0,0,0,0],"split_type":[0,0,0,0,0,0,0,0,0,0,0,0,0,0,0,0,0,0,0,0,0,0,0,0,0,0,0,0,0,0,0,0,0,0,0,0,0,0,0,0,0,0,0,0,0,0,0,0,0,0,0,0,0,0,0,0,0,0,0,0,0,0,0,0,0,0,0,0,0,0,0,0,0,0,0,0,0,0,0,0,0,0,0,0,0,0,0,0,0,0,0,0,0,0,0,0,0,0,0,0,0,0,0,0,0,0,0,0,0,0,0,0,0,0,0,0,0,0,0],"sum_hessian":[2.7662E4,1.1937E4,1.5725E4,5.065E3,6.872E3,7.154E3,8.571E3,1.476E3,3.589E3,3.587E3,3.285E3,3.199E3,3.955E3,4.974E3,3.597E3,3.24E2,1.152E3,1.732E3,1.857E3,1.775E3,1.812E3,1.683E3,1.602E3,1.778E3,1.421E3,1.672E3,2.283E3,2.222E3,2.752E3,2.526E3,1.071E3,1.09E2,2.15E2,5.46E2,6.06E2,7.44E2,9.88E2,7.39E2,1.118E3,9.58E2,8.17E2,1.043E3,7.69E2,1.029E3,6.54E2,9.43E2,6.59E2,9.39E2,8.39E2,6.53E2,7.68E2,9.66E2,7.06E2,1.089E3,1.194E3,1.019E3,1.203E3,1.08E3,1.672E3,1.341E3,1.185E3,5.93E2,4.78E2,2.21E2,5.23E2,3.5E2,6.38E2,3.37E2,4.02E2,1.95E2,9.23E2,8.81E2,7.7E1,5.55E2,2.62E2,1.43E2,9E2,6.26E2,1.43E2,9.77E2,5.2E1,3.35E2,3.19E2,8.81E2,6.2E1,3.64E2,2.95E2,1.36E2,8.03E2,2.69E2,5.7E2,3.31E2,3.22E2,5.69E2,1.99E2,2.64E2,7.02E2,2.22E2,4.84E2,2.1E2,8.79E2,6.18E2,5.76E2,3.38E2,6.81E2,4.68E2,7.35E2,2.79E2,8.01E2,4.37E2,1.235E3,7.32E2,6.09E2,4.54E2,7.31E2,3.75E2,2.18E2,3.76E2,1.02E2],"tree_param":{"num_deleted":"0","num_feature":"16","num_nodes":"119","size_leaf_vector":"1"}},{"base_weights":[1.3035195E-4,-5.6054604E-1,4.1897625E-1,-8.957445E-1,-3.520537E-1,1.6845213E-1,6.357988E-1,-1.1681038E0,-7.8938884E-1,-4.9120107E-1,-2.2387896E-1,3.481988E-2,2.815505E-1,5.280428E-1,7.876678E-1,-1.3772E0,-1.0980573E0,-8.811049E-1,-7.1098924E-1,-5.598432E-1,-4.2667156E-1,-2.9714394E-1,-1.531579E-1,-2.5264319E-2,9.305118E-2,2.157281E-1,3.3562237E-1,4.5669594E-1,5.8075863E-1,7.1657795E-1,9.080072E-1,-7.541322E-2,-6.562825E-2,-5.8062445E-2,-5.219927E-2,-4.7230612E-2,-8.455543E-1,-7.506892E-1,-6.633341E-1,-5.96391E-1,-5.258927E-1,-4.572296E-1,-3.9228615E-1,-3.287076E-1,-2.6281485E-1,-1.898931E-1,-1.182328E-1,4.4855926E-2,-4.482205E-2,5.139457E-2,1.2138779E-1,1.640113E-1,2.3647274E-1,2.9813373E-1,3.6019614E-1,4.2370132E-1,4.817441E-1,5.449179E-1,6.121263E-1,6.7829233E-1,7.52438E-1,8.568531E-1,1.003592E0,-3.8524106E-2,-4.2871106E-2,-3.174287E-2,-3.786101E-2,-3.0088443E-2,-3.4057986E-2,-2.580289E-2,-3.0620325E-2,-2.164351E-2,-2.699869E-2,-1.902655E-2,-2.359953E-2,-1.5363425E-2,-2.0370198E-2,-1.1803643E-2,-1.7073693E-2,-8.642917E-3,-1.3991666E-2,-4.5041754E-3,-1.0593454E-2,-1.4774088E-3,-6.8345377E-3,-2.5130478E-3,3.1802398E-3,-3.80713E-3,-7.3802157E-4,1.3580292E-3,4.2447117E-3,9.4727045E-3,5.019121E-3,6.834221E-3,9.54042E-3,1.4453426E-2,1.090972E-2,1.8720062E-2,1.4196365E-2,2.1281462E-2,1.7174708E-2,2.492581E-2,2.0206945E-2,2.6942855E-2,2.322079E-2,2.9884925E-2,2.6300622E-2,3.251885E-2,2.9554803E-2,3.196494E-2,3.4984965E-2,3.925557E-2,3.630468E-2,4.0964123E-2,4.4403385E-2,5.0338265E-2,2.002315E-2],"categories":[],"categories_nodes":[],"categories_segments":[],"categories_sizes":[],"default_left":[0,0,0,0,0,0,0,0,0,0,0,0,0,0,0,0,0,0,0,0,0,0,0,0,0,0,0,0,0,0,0,0,0,0,0,0,0,0,0,0,0,0,0,0,0,0,0,0,0,0,0,0,0,0,0,0,0,0,0,0,0,0,0,0,0,0,0,0,0,0,0,0,0,0,0,0,0,0,0,0,0,0,0,0,0,0,0,0,0,0,0,0,0,0,0,0,0,0,0,0,0,0,0,0,0,0,0,0,0,0,0,0,0,0,0,0,0],"id":11,"left_children":[1,3,5,7,9,11,13,15,17,19,21,23,25,27,29,31,33,35,37,39,41,43,45,47,49,51,53,55,57,59,61,-1,-1,-1,-1,-1,63,65,67,69,71,73,75,77,79,81,83,85,87,89,91,93,95,97,99,101,103,105,107,109,111,113,115,-1,-1,-1,-1,-1,-1,-1,-1,-1,-1,-1,-1,-1,-1,-1,-1,-1,-1,-1,-1,-1,-1,-1,-1,-1,-1,-1,-1,-1,-1,-1,-1,-1,-1,-1,-1,-1,-1,-1,-1,-1,-1,-1,-1,-1,-1,-1,-1,-1,-1,-1,-1,-1,-1],"loss_changes":[6.472813E3,8.2336475E2,8.568884E2,1.2997949E2,1.2951617E2,1.1063678E2,1.3798096E2,1.7044678E1,2.2764404E1,1.5193298E1,1.9565994E1,1.1747758E1,1.4039581E1,1.8352295E1,2.9360107E1,6.8029785E-1,2.0474854E0,2.5766602E0,2.829895E0,1.7771606E0,1.7120056E0,1.9268646E0,2.4511337E0,2.2689228E0,2.0063553E0,1.8826752E0,1.896286E0,1.5380249E0,2.862671E0,2.5236816E0,5.491577E0,0E0,0E0,0E0,0E0,0E0,2.0178223E-1,2.3944092E-1,4.7683716E-1,7.183838E-1,9.215698E-1,8.9253235E-1,9.724426E-1,1.0594025E0,1.3218002E0,2.0383377E0,1.618166E0,6.4698035E-1,1.2162957E0,5.594808E-1,1.4307575E0,3.5177708E-1,1.1636276E0,8.3309174E-1,1.2843628E0,1.1420898E0,9.284668E-1,1.0187378E0,8.286133E-1,4.5339966E-1,4.0429688E-1,2.7288818E-1,4.5230103E-1,0E0,0E0,0E0,0E0,0E0,0E0,0E0,0E0,0E0,0E0,0E0,0E0,0E0,0E0,0E0,0E0,0E0,0E0,0E0,0E0,0E0,0E0,0E0,0E0,0E0,0E0,0E0,0E0,0E0,0E0,0E0,0E0,0E0,0E0,0E0,0E0,0E0,0E0,0E0,0E0,0E0,0E0,0E0,0E0,0E0,0E0,0E0,0E0,0E0,0E0,0E0,0E0,0E0,0E0],"parents":[2147483647,0,0,1,1,2,2,3,3,4,4,5,5,6,6,7,7,8,8,9,9,10,10,11,11,12,12,13,13,14,14,15,15,16,16,17,17,18,18,19,19,20,20,21,21,22,22,23,23,24,24,25,25,26,26,27,27,28,28,29,29,30,30,36,36,37,37,38,38,39,39,40,40,41,41,42,42,43,43,44,44,45,45,46,46,47,47,48,48,49,49,50,50,51,51,52,52,53,53,54,54,55,55,56,56,57,57,58,58,59,59,60,60,61,61,62,62],"right_children":[2,4,6,8,10,12,14,16,18,20,22,24,26,28,30,32,34,36,38,40,42,44,46,48,50,52,54,56,58,60,62,-1,-1,-1,-1,-1,64,66,68,70,72,74,76,78,80,82,84,86,88,90,92,94,96,98,100,102,104,106,108,110,112,114,116,-1,-1,-1,-1,-1,-1,-1,-1,-1,-1,-1,-1,-1,-1,-1,-1,-1,-1,-1,-1,-1,-1,-1,-1,-1,-1,-1,-1,-1,-1,-1,-1,-1,-1,-1,-1,-1,-1,-1,-1,-1,-1,-1,-1,-1,-1,-1,-1,-1,-1,-1,-1,-1,-1],"split_conditions":[-1.3979283E-1,-1.1025058E0,7.014126E-1,-1.7380832E0,-6.351694E-1,2.808099E-1,1.1500555E0,-2.1773794E0,-1.4016011E0,-8.594909E-1,-4.015012E-1,6.583517E-2,4.8643792E-1,9.0704066E-1,1.4211106E0,-2.4577813E0,-1.9343646E0,-1.5885355E0,-1.2333599E0,-9.8099834E-1,-7.379834E-1,-5.136619E-1,-2.7064702E-1,-1.6795173E-1,-3.6548224E-1,-7.0658445E-1,5.705584E-1,7.948799E-1,1.0192014E0,1.2622163E0,1.6454321E0,-7.541322E-2,-6.562825E-2,-5.8062445E-2,-5.219927E-2,-4.7230612E-2,-1.6169727E0,-1.4765757E0,-1.2148402E0,-1.1026678E0,-1.0091909E0,-8.596277E-1,-7.7549845E-1,-6.913692E-1,-5.4180604E-1,-4.2028594E-1,-2.8007048E-1,-7.0658445E-1,-3.6978833E-2,1.8734263E-1,9.670198E-3,3.836239E-1,3.088229E-1,4.4904992E-1,5.7057E-1,6.733947E-1,7.669005E-1,8.977798E-1,1.0380076E0,-7.0658445E-1,1.2997663E0,-9.9949557E-1,5.197807E-1,-3.8524106E-2,-4.2871106E-2,-3.174287E-2,-3.786101E-2,-3.0088443E-2,-3.4057986E-2,-2.580289E-2,-3.0620325E-2,-2.164351E-2,-2.699869E-2,-1.902655E-2,-2.359953E-2,-1.5363425E-2,-2.0370198E-2,-1.1803643E-2,-1.7073693E-2,-8.642917E-3,-1.3991666E-2,-4.5041754E-3,-1.0593454E-2,-1.4774088E-3,-6.8345377E-3,-2.5130478E-3,3.1802398E-3,-3.80713E-3,-7.3802157E-4,1.3580292E-3,4.2447117E-3,9.4727045E-3,5.019121E-3,6.834221E-3,9.54042E-3,1.4453426E-2,1.090972E-2,1.8720062E-2,1.4196365E-2,2.1281462E-2,1.7174708E-2,2.492581E-2,2.0206945E-2,2.6942855E-2,2.322079E-2,2.9884925E-2,2.6300622E-2,3.251885E-2,2.9554803E-2,3.196494E-2,3.4984965E-2,3.925557E-2,3.630468E-2,4.0964123E-2,4.4403385E-2,5.0338265E-2,2.002315E-2],"split_indices":[4,4,4,4,4,4,4,4,4,4,4,4,4,4,4,4,4,4,4,4,4,4,4,6,0,0,4,4,4,4,4,0,0,0,0,0,6,5,5,5,5,5,5,5,5,5,5,0,4,4,6,4,6,5,5,5,6,6,6,0,6,0,14,0,0,0,0,0,0,0,0,0,0,0,0,0,0,0,0,0,0,0,0,0,0,0,0,0,0,0,0,0,0,0,0,0,0,0,0,0,0,0,0,0,0,0,0,0,0,0,0,0,0,0,0,0,0],"split_type":[0,0,0,0,0,0,0,0,0,0,0,0,0,0,0,0,0,0,0,0,0,0,0,0,0,0,0,0,0,0,0,0,0,0,0,0,0,0,0,0,0,0,0,0,0,0,0,0,0,0,0,0,0,0,0,0,0,0,0,0,0,0,0,0,0,0,0,0,0,0,0,0,0,0,0,0,0,0,0,0,0,0,0,0,0,0,0,0,0,0,0,0,0,0,0,0,0,0,0,0,0,0,0,0,0,0,0,0,0,0,0,0,0,0,0,0,0],"sum_hessian":[2.7561E4,1.1785E4,1.5776E4,4.518E3,7.267E3,7.32E3,8.456E3,1.266E3,3.252E3,3.483E3,3.784E3,3.356E3,3.964E3,4.949E3,3.507E3,3.13E2,9.53E2,1.494E3,1.758E3,1.684E3,1.799E3,1.857E3,1.927E3,1.652E3,1.704E3,1.79E3,2.174E3,2.107E3,2.842E3,2.209E3,1.298E3,9.6E1,2.17E2,4.3E2,5.23E2,5.27E2,9.67E2,9.51E2,8.07E2,8.03E2,8.81E2,9.46E2,8.53E2,9.63E2,8.94E2,9.37E2,9.9E2,3.6E2,1.292E3,6.91E2,1.013E3,5.15E2,1.275E3,8.66E2,1.308E3,9.17E2,1.19E3,1.335E3,1.507E3,1.078E3,1.131E3,8.52E2,4.46E2,1.41E2,8.26E2,5.6E1,8.95E2,1.89E2,6.18E2,1.39E2,6.64E2,1.2E2,7.61E2,1.57E2,7.89E2,1.32E2,7.21E2,1.19E2,8.44E2,1.44E2,7.5E2,1.7E2,7.67E2,1.71E2,8.19E2,5.9E1,3.01E2,6.32E2,6.6E2,4.02E2,2.89E2,2.37E2,7.76E2,2.58E2,2.57E2,3.25E2,9.5E2,1.32E2,7.34E2,2.61E2,1.047E3,1.85E2,7.32E2,2.7E2,9.2E2,3.44E2,9.91E2,5.24E2,9.83E2,3.93E2,6.85E2,4.92E2,6.39E2,3.99E2,4.53E2,4.43E2,3E0],"tree_param":{"num_deleted":"0","num_feature":"16","num_nodes":"117","size_leaf_vector":"1"}},{"base_weights":[1.9206615E-4,-5.360544E-1,3.9434892E-1,-8.5434216E-1,-3.3776972E-1,1.5538982E-1,6.027523E-1,-1.1000417E0,-7.447465E-1,-4.663886E-1,-2.1657142E-1,3.0878719E-2,2.6197305E-1,5.0493103E-1,7.590771E-1,-1.2775527E0,-1.0181199E0,-8.249434E-1,-6.685277E-1,-5.301642E-1,-4.061568E-1,-2.810587E-1,-1.4558254E-1,-2.4833947E-2,8.781784E-2,2.0277262E-1,3.1621394E-1,4.3755874E-1,5.6198674E-1,6.983577E-1,8.8015497E-1,-6.87915E-2,-5.885312E-2,-4.6414793E-2,-1.0494705E0,-8.759691E-1,-7.8695434E-1,-6.130215E-1,-6.969888E-1,-4.7768885E-1,-5.5913603E-1,-3.535707E-1,-4.3491814E-1,-2.2935513E-1,-3.0833018E-1,-8.572739E-2,-1.7566533E-1,2.7632361E-2,-5.5337224E-2,1.333995E-1,5.634811E-2,2.4775687E-1,1.7846575E-1,3.7234852E-1,2.9582796E-1,4.7289076E-1,4.0660888E-1,5.374137E-1,6.0364896E-1,6.712638E-1,7.5607294E-1,8.4609216E-1,5.0433766E-2,-5.5432256E-2,-4.9972E-2,-4.012303E-2,-4.5045152E-2,-3.592187E-2,-4.044896E-2,-3.265139E-2,-2.8655509E-2,-3.6340907E-2,-3.2723293E-2,-2.4982553E-2,-2.0699581E-2,-2.9820213E-2,-2.6407545E-2,-1.8913636E-2,-1.4637254E-2,-2.3180284E-2,-2.0197688E-2,-1.3690241E-2,-9.327041E-3,-1.6864082E-2,-1.3415995E-2,-6.299039E-3,-2.190663E-3,-1.0716194E-2,-7.219437E-3,-2.2386704E-3,2.2559483E-3,-4.0669637E-3,-1.4546149E-3,3.909659E-3,8.120562E-3,6.638948E-4,3.8043794E-3,1.0215625E-2,1.3509979E-2,7.5210654E-3,1.0493959E-2,1.6146312E-2,1.979281E-2,1.317478E-2,1.604953E-2,2.1303192E-2,2.477744E-2,1.8332502E-2,2.1717222E-2,2.8664066E-2,2.5746435E-2,3.2192167E-2,2.908246E-2,3.5338204E-2,3.220068E-2,3.995793E-2,3.635963E-2,4.3954756E-2,3.931139E-2],"categories":[],"categories_nodes":[],"categories_segments":[],"categories_sizes":[],"default_left":[0,0,0,0,0,0,0,0,0,0,0,0,0,0,0,0,0,0,0,0,0,0,0,0,0,0,0,0,0,0,0,0,0,0,0,0,0,0,0,0,0,0,0,0,0,0,0,0,0,0,0,0,0,0,0,0,0,0,0,0,0,0,0,0,0,0,0,0,0,0,0,0,0,0,0,0,0,0,0,0,0,0,0,0,0,0,0,0,0,0,0,0,0,0,0,0,0,0,0,0,0,0,0,0,0,0,0,0,0,0,0,0,0,0,0,0,0,0,0],"id":12,"left_children":[1,3,5,7,9,11,13,15,17,19,21,23,25,27,29,31,33,35,37,39,41,43,45,47,49,51,53,55,57,59,61,-1,-1,-1,63,65,67,69,71,73,75,77,79,81,83,85,87,89,91,93,95,97,99,101,103,105,107,109,111,113,115,117,-1,-1,-1,-1,-1,-1,-1,-1,-1,-1,-1,-1,-1,-1,-1,-1,-1,-1,-1,-1,-1,-1,-1,-1,-1,-1,-1,-1,-1,-1,-1,-1,-1,-1,-1,-1,-1,-1,-1,-1,-1,-1,-1,-1,-1,-1,-1,-1,-1,-1,-1,-1,-1,-1,-1,-1,-1],"loss_changes":[5.8668643E3,7.4184106E2,7.96605E2,1.20704834E2,1.1286804E2,9.89124E1,1.3028589E2,1.891272E1,1.8543945E1,1.3286865E1,1.704831E1,1.0911481E1,1.2831604E1,1.9969604E1,2.355066E1,2.6765747E0,1.7179565E0,2.253296E0,2.1113892E0,2.3235168E0,2.5867615E0,2.6858978E0,3.1882286E0,2.7846148E0,2.4324713E0,2.0584412E0,2.2861328E0,2.449646E0,2.5871582E0,2.9233398E0,3.935852E0,0E0,0E0,0E0,9.673462E-1,4.482422E-1,7.4676514E-1,5.0871277E-1,8.624878E-1,6.506958E-1,9.460144E-1,8.5988617E-1,8.493805E-1,1.2411194E0,1.3887177E0,1.00173E0,1.3994293E0,8.12344E-1,7.482977E-1,1.0988312E0,8.559742E-1,6.000061E-1,1.0714035E0,5.158081E-1,1.1691437E0,9.793091E-1,1.2759552E0,1.1548462E0,5.513611E-1,9.9780273E-1,2.8118896E-1,1.0296631E0,0E0,0E0,0E0,0E0,0E0,0E0,0E0,0E0,0E0,0E0,0E0,0E0,0E0,0E0,0E0,0E0,0E0,0E0,0E0,0E0,0E0,0E0,0E0,0E0,0E0,0E0,0E0,0E0,0E0,0E0,0E0,0E0,0E0,0E0,0E0,0E0,0E0,0E0,0E0,0E0,0E0,0E0,0E0,0E0,0E0,0E0,0E0,0E0,0E0,0E0,0E0,0E0,0E0,0E0,0E0,0E0,0E0],"parents":[2147483647,0,0,1,1,2,2,3,3,4,4,5,5,6,6,7,7,8,8,9,9,10,10,11,11,12,12,13,13,14,14,15,15,16,16,17,17,18,18,19,19,20,20,21,21,22,22,23,23,24,24,25,25,26,26,27,27,28,28,29,29,30,30,34,34,35,35,36,36,37,37,38,38,39,39,40,40,41,41,42,42,43,43,44,44,45,45,46,46,47,47,48,48,49,49,50,50,51,51,52,52,53,53,54,54,55,55,56,56,57,57,58,58,59,59,60,60,61,61],"right_children":[2,4,6,8,10,12,14,16,18,20,22,24,26,28,30,32,34,36,38,40,42,44,46,48,50,52,54,56,58,60,62,-1,-1,-1,64,66,68,70,72,74,76,78,80,82,84,86,88,90,92,94,96,98,100,102,104,106,108,110,112,114,116,118,-1,-1,-1,-1,-1,-1,-1,-1,-1,-1,-1,-1,-1,-1,-1,-1,-1,-1,-1,-1,-1,-1,-1,-1,-1,-1,-1,-1,-1,-1,-1,-1,-1,-1,-1,-1,-1,-1,-1,-1,-1,-1,-1,-1,-1,-1,-1,-1,-1,-1,-1,-1,-1,-1,-1,-1,-1],"split_conditions":[-1.4913957E-1,-1.1025058E0,6.920659E-1,-1.7006963E0,-6.351694E-1,2.714632E-1,1.168749E0,-2.0932589E0,-1.3735609E0,-8.594909E-1,-3.9215448E-1,6.583517E-2,4.8643792E-1,9.257341E-1,1.4678442E0,-2.298887E0,-7.0711607E-1,-1.5418019E0,-3.660555E-1,-3.660555E-1,-3.660555E-1,-3.660555E-1,-3.660555E-1,-3.660555E-1,-3.660555E-1,-3.660555E-1,-7.0711607E-1,-5.239147E-5,1.0752817E0,1.3463368E0,1.7575928E0,-6.87915E-2,-5.885312E-2,-4.6414793E-2,-1.8969777E0,-7.0711607E-1,-7.0711607E-1,-1.2333599E0,-1.2146665E0,6.6980445E-1,-9.9034506E-1,6.367743E-1,-7.473301E-1,5.655567E-4,-4.9496847E-1,4.716234E-1,-2.7999374E-1,-7.0658445E-1,-4.632556E-2,-3.6548224E-1,8.069574E-2,-3.6548224E-1,3.9297062E-1,-5.523122E-1,6.808125E-1,-3.6548224E-1,7.948799E-1,-3.660555E-1,-7.0711607E-1,-3.660555E-1,-7.0711607E-1,-5.239147E-5,5.0433766E-2,-5.5432256E-2,-4.9972E-2,-4.012303E-2,-4.5045152E-2,-3.592187E-2,-4.044896E-2,-3.265139E-2,-2.8655509E-2,-3.6340907E-2,-3.2723293E-2,-2.4982553E-2,-2.0699581E-2,-2.9820213E-2,-2.6407545E-2,-1.8913636E-2,-1.4637254E-2,-2.3180284E-2,-2.0197688E-2,-1.3690241E-2,-9.327041E-3,-1.6864082E-2,-1.3415995E-2,-6.299039E-3,-2.190663E-3,-1.0716194E-2,-7.219437E-3,-2.2386704E-3,2.2559483E-3,-4.0669637E-3,-1.4546149E-3,3.909659E-3,8.120562E-3,6.638948E-4,3.8043794E-3,1.0215625E-2,1.3509979E-2,7.5210654E-3,1.0493959E-2,1.6146312E-2,1.979281E-2,1.317478E-2,1.604953E-2,2.1303192E-2,2.477744E-2,1.8332502E-2,2.1717222E-2,2.8664066E-2,2.5746435E-2,3.2192167E-2,2.908246E-2,3.5338204E-2,3.220068E-2,3.995793E-2,3.635963E-2,4.3954756E-2,3.931139E-2],"split_indices":[4,4,4,4,4,4,4,4,4,4,4,4,4,4,4,4,1,4,1,1,1,1,1,1,1,1,1,1,4,4,4,0,0,0,4,1,1,4,4,13,4,13,4,0,4,13,4,0,4,0,12,0,4,13,12,0,4,1,1,1,1,1,0,0,0,0,0,0,0,0,0,0,0,0,0,0,0,0,0,0,0,0,0,0,0,0,0,0,0,0,0,0,0,0,0,0,0,0,0,0,0,0,0,0,0,0,0,0,0,0,0,0,0,0,0,0,0,0,0],"split_type":[0,0,0,0,0,0,0,0,0,0,0,0,0,0,0,0,0,0,0,0,0,0,0,0,0,0,0,0,0,0,0,0,0,0,0,0,0,0,0,0,0,0,0,0,0,0,0,0,0,0,0,0,0,0,0,0,0,0,0,0,0,0,0,0,0,0,0,0,0,0,0,0,0,0,0,0,0,0,0,0,0,0,0,0,0,0,0,0,0,0,0,0,0,0,0,0,0,0,0,0,0,0,0,0,0,0,0,0,0,0,0,0,0,0,0,0,0,0,0],"sum_hessian":[2.7755E4,1.1758E4,1.5997E4,4.512E3,7.246E3,7.453E3,8.544E3,1.389E3,3.123E3,3.514E3,3.732E3,3.438E3,4.015E3,5.258E3,3.286E3,4.34E2,9.55E2,1.517E3,1.606E3,1.703E3,1.811E3,1.954E3,1.778E3,1.738E3,1.7E3,1.922E3,2.093E3,2.415E3,2.843E3,2.193E3,1.093E3,2.13E2,2.21E2,2.55E2,7E2,6.38E2,8.79E2,5.52E2,1.054E3,6.12E2,1.091E3,6.45E2,1.166E3,6.78E2,1.276E3,5.96E2,1.182E3,6.39E2,1.099E3,6.93E2,1.007E3,6.71E2,1.251E3,5.53E2,1.54E3,1.121E3,1.294E3,1.797E3,1.046E3,1.501E3,6.92E2,8.7E2,2.23E2,3.11E2,3.89E2,1.7E2,4.68E2,2.22E2,6.57E2,2.68E2,2.84E2,6.1E2,4.44E2,4.5E2,1.62E2,4.87E2,6.04E2,4.55E2,1.9E2,5.98E2,5.68E2,3.3E2,3.48E2,7.36E2,5.4E2,3.03E2,2.93E2,5.26E2,6.56E2,1.24E2,5.15E2,5.51E2,5.48E2,2.4E2,4.53E2,3.17E2,6.9E2,2.32E2,4.39E2,6.64E2,5.87E2,1.83E2,3.7E2,6.79E2,8.61E2,3.72E2,7.49E2,5.36E2,7.58E2,6.83E2,1.114E3,3.6E2,6.86E2,6.41E2,8.6E2,2.67E2,4.25E2,5.52E2,3.18E2],"tree_param":{"num_deleted":"0","num_feature":"16","num_nodes":"119","size_leaf_vector":"1"}},{"base_weights":[5.8062305E-4,-4.9855497E-1,3.7890348E-1,-7.767119E-1,-2.9573724E-1,1.6899681E-1,5.797783E-1,-9.988772E-1,-6.64669E-1,-4.076533E-1,-1.8220378E-1,4.028866E-2,2.708839E-1,5.032477E-1,7.2671884E-1,-1.194788E0,-9.307529E-1,-7.343831E-1,-5.8860594E-1,-2.97842E-1,-4.5048487E-1,-6.5672174E-2,-2.2705138E-1,1.2873939E-1,-1.5705667E-2,3.551232E-1,2.2347362E-1,4.489814E-1,5.583553E-1,6.7969507E-1,8.4300125E-1,-6.809037E-2,-1.1363038E0,-7.848749E-1,-9.725252E-1,-5.968389E-1,-7.706816E-1,-4.7878635E-1,-6.340471E-1,-3.5217044E-1,-2.061376E-1,-5.153031E-1,-4.0344378E-1,-1.4171058E-1,-1.4154674E-2,-2.8755343E-1,-1.7209058E-1,5.1898945E-2,1.6806732E-1,-7.114386E-2,3.5072017E-2,2.9328388E-1,4.0267202E-1,1.501143E-1,2.6890096E-1,5.179151E-1,4.0643713E-1,6.3308793E-1,5.249893E-1,7.529204E-1,6.349923E-1,9.0201575E-1,7.646646E-1,-4.7808062E-2,-5.918017E-2,-3.6963575E-2,-4.3625366E-2,-5.2000888E-2,-4.5980107E-2,-3.170033E-2,-2.6647901E-2,-4.129112E-2,-3.688689E-2,-2.5549328E-2,-1.9422939E-2,-3.3707578E-2,-3.0436141E-2,-2.0337878E-2,-1.4794863E-2,-1.3531583E-2,-7.1982625E-3,-2.6901776E-2,-2.4111805E-2,-2.1354806E-2,-1.818165E-2,-1.0824332E-2,-4.765989E-3,-4.5190933E-3,1.7838124E-3,-1.5726782E-2,-1.2822029E-2,-1.0023238E-2,-6.6280225E-3,-6.80302E-4,4.375599E-3,4.780687E-3,1.0111953E-2,-5.843815E-3,-2.5004875E-3,1.934416E-4,3.6247731E-3,1.2423254E-2,1.637258E-2,1.6013047E-2,2.1248763E-2,4.948106E-3,8.981655E-3,1.0401839E-2,1.4520675E-2,2.2760749E-2,2.717395E-2,2.0955326E-2,1.5920043E-2,3.2907914E-2,2.7585244E-2,2.3275737E-2,2.7143016E-2,3.8147613E-2,2.7362648E-2,3.0543862E-2,3.4136254E-2,4.274752E-2,4.78723E-2,3.597748E-2,4.114771E-2],"categories":[],"categories_nodes":[],"categories_segments":[],"categories_sizes":[],"default_left":[0,0,0,0,0,0,0,0,0,0,0,0,0,0,0,0,0,0,0,0,0,0,0,0,0,0,0,0,0,0,0,0,0,0,0,0,0,0,0,0,0,0,0,0,0,0,0,0,0,0,0,0,0,0,0,0,0,0,0,0,0,0,0,0,0,0,0,0,0,0,0,0,0,0,0,0,0,0,0,0,0,0,0,0,0,0,0,0,0,0,0,0,0,0,0,0,0,0,0,0,0,0,0,0,0,0,0,0,0,0,0,0,0,0,0,0,0,0,0,0,0,0,0,0,0],"id":13,"left_children":[1,3,5,7,9,11,13,15,17,19,21,23,25,27,29,31,33,35,37,39,41,43,45,47,49,51,53,55,57,59,61,-1,63,65,67,69,71,73,75,77,79,81,83,85,87,89,91,93,95,97,99,101,103,105,107,109,111,113,115,117,119,121,123,-1,-1,-1,-1,-1,-1,-1,-1,-1,-1,-1,-1,-1,-1,-1,-1,-1,-1,-1,-1,-1,-1,-1,-1,-1,-1,-1,-1,-1,-1,-1,-1,-1,-1,-1,-1,-1,-1,-1,-1,-1,-1,-1,-1,-1,-1,-1,-1,-1,-1,-1,-1,-1,-1,-1,-1,-1,-1,-1,-1,-1,-1],"loss_changes":[5.2363784E3,6.7427E2,6.6501245E2,1.2481665E2,8.780194E1,1.01161255E2,9.027222E1,2.1416504E1,1.7352905E1,1.6242981E1,1.793695E1,1.6890862E1,1.7118011E1,1.5607788E1,1.45078125E1,2.6723633E0,6.8964844E0,8.257202E0,7.72583E0,4.8099213E0,7.424103E0,3.742941E0,8.197121E0,3.9863281E0,5.8830786E0,4.436554E0,9.150726E0,7.640442E0,6.2182007E0,5.967163E0,2.9624023E0,0E0,1.6459961E0,4.93927E-1,2.519104E0,5.3822327E-1,1.8939209E0,1.183075E0,7.423706E-1,1.7657166E0,1.4326162E0,5.2908325E-1,1.2147369E0,1.3183684E0,2.1721513E0,9.091034E-1,1.4337997E0,1.048632E0,2.1445713E0,9.5970297E-1,1.2737138E0,9.5537186E-1,1.4685059E0,1.5782413E0,2.1680908E0,1.3843384E0,1.7180786E0,1.2813721E0,1.6838684E0,1.1113281E0,9.9765015E-1,3.423767E-1,3.1773376E-1,0E0,0E0,0E0,0E0,0E0,0E0,0E0,0E0,0E0,0E0,0E0,0E0,0E0,0E0,0E0,0E0,0E0,0E0,0E0,0E0,0E0,0E0,0E0,0E0,0E0,0E0,0E0,0E0,0E0,0E0,0E0,0E0,0E0,0E0,0E0,0E0,0E0,0E0,0E0,0E0,0E0,0E0,0E0,0E0,0E0,0E0,0E0,0E0,0E0,0E0,0E0,0E0,0E0,0E0,0E0,0E0,0E0,0E0,0E0,0E0,0E0,0E0],"parents":[2147483647,0,0,1,1,2,2,3,3,4,4,5,5,6,6,7,7,8,8,9,9,10,10,11,11,12,12,13,13,14,14,15,15,16,16,17,17,18,18,19,19,20,20,21,21,22,22,23,23,24,24,25,25,26,26,27,27,28,28,29,29,30,30,32,32,33,33,34,34,35,35,36,36,37,37,38,38,39,39,40,40,41,41,42,42,43,43,44,44,45,45,46,46,47,47,48,48,49,49,50,50,51,51,52,52,53,53,54,54,55,55,56,56,57,57,58,58,59,59,60,60,61,61,62,62],"right_children":[2,4,6,8,10,12,14,16,18,20,22,24,26,28,30,32,34,36,38,40,42,44,46,48,50,52,54,56,58,60,62,-1,64,66,68,70,72,74,76,78,80,82,84,86,88,90,92,94,96,98,100,102,104,106,108,110,112,114,116,118,120,122,124,-1,-1,-1,-1,-1,-1,-1,-1,-1,-1,-1,-1,-1,-1,-1,-1,-1,-1,-1,-1,-1,-1,-1,-1,-1,-1,-1,-1,-1,-1,-1,-1,-1,-1,-1,-1,-1,-1,-1,-1,-1,-1,-1,-1,-1,-1,-1,-1,-1,-1,-1,-1,-1,-1,-1,-1,-1,-1,-1,-1,-1,-1],"split_conditions":[-1.3050732E-1,-1.0278863E0,7.5752395E-1,-1.6167912E0,-5.791968E-1,2.9948676E-1,1.2249088E0,-2.0935237E0,-1.2802742E0,-7.0711607E-1,-7.0711607E-1,-3.660555E-1,-3.660555E-1,9.9121636E-1,1.5333828E0,-2.458084E0,-9.999914E-1,-9.999914E-1,-7.0711607E-1,5.046536E-1,-8.2223696E-1,-4.0159056E-1,-3.7354746E-1,1.9055834E-2,7.514202E-2,5.144838E-1,4.8644072E-1,-3.660555E-1,-7.0711607E-1,-3.660555E-1,-5.239147E-5,-6.809037E-2,-9.999914E-1,7.58993E-1,-1.841136E0,3.3950266E-1,-1.4765757E0,6.037441E-1,-1.1774495E0,-8.0354154E-1,-7.848461E-1,-9.063662E-1,-6.7267376E-1,4.223104E-2,4.223104E-2,-4.6702445E-1,-2.239843E-1,-1.8898022E-1,-2.550406E-1,-7.0658445E-1,3.6661333E-1,1.4132158E-1,-7.0658445E-1,-3.6548224E-1,1.5294455E-1,-9.486744E-1,7.1877897E-1,8.866169E-1,8.695099E-1,1.0962375E0,1.402515E0,1.6922936E0,1.6922936E0,-4.7808062E-2,-5.918017E-2,-3.6963575E-2,-4.3625366E-2,-5.2000888E-2,-4.5980107E-2,-3.170033E-2,-2.6647901E-2,-4.129112E-2,-3.688689E-2,-2.5549328E-2,-1.9422939E-2,-3.3707578E-2,-3.0436141E-2,-2.0337878E-2,-1.4794863E-2,-1.3531583E-2,-7.1982625E-3,-2.6901776E-2,-2.4111805E-2,-2.1354806E-2,-1.818165E-2,-1.0824332E-2,-4.765989E-3,-4.5190933E-3,1.7838124E-3,-1.5726782E-2,-1.2822029E-2,-1.0023238E-2,-6.6280225E-3,-6.80302E-4,4.375599E-3,4.780687E-3,1.0111953E-2,-5.843815E-3,-2.5004875E-3,1.934416E-4,3.6247731E-3,1.2423254E-2,1.637258E-2,1.6013047E-2,2.1248763E-2,4.948106E-3,8.981655E-3,1.0401839E-2,1.4520675E-2,2.2760749E-2,2.717395E-2,2.0955326E-2,1.5920043E-2,3.2907914E-2,2.7585244E-2,2.3275737E-2,2.7143016E-2,3.8147613E-2,2.7362648E-2,3.0543862E-2,3.4136254E-2,4.274752E-2,4.78723E-2,3.597748E-2,4.114771E-2],"split_indices":[5,5,5,5,5,5,5,5,5,1,1,1,1,5,5,5,1,1,1,13,5,5,5,5,5,5,5,1,1,1,1,0,1,15,5,13,5,13,5,5,5,5,5,13,13,5,5,13,13,0,0,13,0,0,14,13,2,14,9,14,5,5,5,0,0,0,0,0,0,0,0,0,0,0,0,0,0,0,0,0,0,0,0,0,0,0,0,0,0,0,0,0,0,0,0,0,0,0,0,0,0,0,0,0,0,0,0,0,0,0,0,0,0,0,0,0,0,0,0,0,0,0,0,0,0],"split_type":[0,0,0,0,0,0,0,0,0,0,0,0,0,0,0,0,0,0,0,0,0,0,0,0,0,0,0,0,0,0,0,0,0,0,0,0,0,0,0,0,0,0,0,0,0,0,0,0,0,0,0,0,0,0,0,0,0,0,0,0,0,0,0,0,0,0,0,0,0,0,0,0,0,0,0,0,0,0,0,0,0,0,0,0,0,0,0,0,0,0,